{"learner":{"attributes":{"best_iteration":"199","best_score":"0.0830231914231589","scikit_learn":"{\"_estimator_type\": \"classifier\"}"},"feature_names":[],"feature_types":[],"gradient_booster":{"model":{"cats":{"enc":[],"feature_segments":[],"sorted_idx":[]},"gbtree_model_param":{"num_parallel_tree":"1","num_trees":"200"},"iteration_indptr":[0,1,2,3,4,5,6,7,8,9,10,11,12,13,14,15,16,17,18,19,20,21,22,23,24,25,26,27,28,29,30,31,32,33,34,35,36,37,38,39,40,41,42,43,44,45,46,47,48,49,50,51,52,53,54,55,56,57,58,59,60,61,62,63,64,65,66,67,68,69,70,71,72,73,74,75,76,77,78,79,80,81,82,83,84,85,86,87,88,89,90,91,92,93,94,95,96,97,98,99,100,101,102,103,104,105,106,107,108,109,110,111,112,113,114,115,116,117,118,119,120,121,122,123,124,125,126,127,128,129,130,131,132,133,134,135,136,137,138,139,140,141,142,143,144,145,146,147,148,149,150,151,152,153,154,155,156,157,158,159,160,161,162,163,164,165,166,167,168,169,170,171,172,173,174,175,176,177,178,179,180,181,182,183,184,185,186,187,188,189,190,191,192,193,194,195,196,197,198,199,200],"tree_info":[0,0,0,0,0,0,0,0,0,0,0,0,0,0,0,0,0,0,0,0,0,0,0,0,0,0,0,0,0,0,0,0,0,0,0,0,0,0,0,0,0,0,0,0,0,0,0,0,0,0,0,0,0,0,0,0,0,0,0,0,0,0,0,0,0,0,0,0,0,0,0,0,0,0,0,0,0,0,0,0,0,0,0,0,0,0,0,0,0,0,0,0,0,0,0,0,0,0,0,0,0,0,0,0,0,0,0,0,0,0,0,0,0,0,0,0,0,0,0,0,0,0,0,0,0,0,0,0,0,0,0,0,0,0,0,0,0,0,0,0,0,0,0,0,0,0,0,0,0,0,0,0,0,0,0,0,0,0,0,0,0,0,0,0,0,0,0,0,0,0,0,0,0,0,0,0,0,0,0,0,0,0,0,0,0,0,0,0,0,0,0,0,0,0,0,0,0,0,0,0],"trees":[{"base_weights":[1.9261616E-4,-1.7400794E0,1.4397796E0,-1.9388912E0,8.247317E-1,1.1068296E-1,1.9401201E0,-1.9518284E0,1.0682563E0,2.4423386E-1,1.534889E0,-9.426689E-1,1.619477E0,1.5100013E0,1.9992288E0,-1.9679797E0,-1.6705792E0,-5.5728346E-1,1.678201E0,-5.0378007E-1,4.9334982E-1,1.2448426E0,1.8120942E0,-1.1706372E0,1.9112991E0,5.5618083E-1,1.7576753E0,9.4556475E-1,1.8797697E0,1.9572914E0,1.9999905E-1,-1.9757905E0,-1.742775E0,-1.7903408E0,-7.564537E-1,-1.6023829E0,2.1224907E-1,9.609876E-1,1.9963928E-1,-1.0430632E0,-2.5267702E-1,2.7143547E-1,9.220916E-1,6.911082E-1,1.4140892E0,1.8189012E0,-1.1830232E0,-1.3989486E0,-5.886711E-1,1.9384596E0,9.1979325E-1,3.4979096E-1,1.9310254E0,1.5476015E0,1.8768643E0,5.9985325E-2,1.7541547E0,1.7262146E0,1.9791274E0,5.5113745E-1,1.9610658E0,-1.9865079E-1,-1.9012016E-1,-1.9092739E-1,-1.4829849E-1,-1.9156161E-1,-1.5595402E-1,-1.7378168E-1,-3.6420636E-2,-1.9148465E-1,-1.2992426E-2,-2.0728564E-2,1.9414707E-1,1.392118E-1,-9.167027E-2,-7.499524E-2,-1.79165E-1,-5.9686657E-2,-1.0554686E-3,-1.4808607E-1,3.0814279E-2,1.0082456E-1,-1.6029572E-1,3.3861082E-2,1.01453565E-1,1.4358927E-1,2.1079393E-2,1.7278755E-1,1.9081968E-1,-1.7419355E-1,1.1580079E-2,9.252395E-2,-1.4390658E-1,-7.84738E-2,-2.153529E-2,1.7761329E-1,1.99929E-1,-1.590023E-2,1.9637161E-1,1.7773915E-2,7.822523E-2,1.7541698E-1,1.9950955E-1,1.5046506E-1,1.9660822E-1,1.7826207E-1,1.9331531E-1,8.851738E-2,-5.2678447E-2,1.2723932E-1,1.8792605E-1,1.6014132E-1,1.9691579E-1,9.660752E-2,1.9796713E-1,-1.5789475E-1,1.7494784E-1,1.8657272E-1,1.9810635E-1],"categories":[],"categories_nodes":[],"categories_segments":[],"categories_sizes":[],"default_left":[0,0,0,0,0,0,0,0,0,0,0,0,0,0,0,0,0,0,0,0,0,0,0,0,0,0,0,0,0,0,0,0,0,0,0,0,0,0,0,0,0,0,0,0,0,0,0,0,0,0,0,0,0,0,0,0,0,0,0,0,0,0,0,0,0,0,0,0,0,0,0,0,0,0,0,0,0,0,0,0,0,0,0,0,0,0,0,0,0,0,0,0,0,0,0,0,0,0,0,0,0,0,0,0,0,0,0,0,0,0,0,0,0,0,0,0,0,0,0],"id":0,"left_children":[1,3,5,7,9,11,13,15,17,19,21,23,25,27,29,31,33,35,37,39,41,43,45,47,49,51,53,55,57,59,-1,61,63,65,67,69,71,73,-1,75,77,79,81,83,85,87,89,91,93,95,97,99,101,103,105,107,109,111,113,115,117,-1,-1,-1,-1,-1,-1,-1,-1,-1,-1,-1,-1,-1,-1,-1,-1,-1,-1,-1,-1,-1,-1,-1,-1,-1,-1,-1,-1,-1,-1,-1,-1,-1,-1,-1,-1,-1,-1,-1,-1,-1,-1,-1,-1,-1,-1,-1,-1,-1,-1,-1,-1,-1,-1,-1,-1,-1,-1],"loss_changes":[1.5333622E6,1.412935E5,2.2275156E5,1.00065E4,8.217384E3,1.4559956E5,6.184E3,1.159875E3,1.0937888E3,2.0443425E3,7.1860156E2,3.510222E4,5.533578E3,6.1356094E3,2.8125E0,4.224375E2,1.52175E3,2.4281128E2,1.8104858E2,3.7091827E2,7.8273816E2,4.099292E2,9.556641E1,6.637211E3,1.0569141E2,1.2290135E3,8.3165625E2,8.335891E3,2.6764062E2,1.9424805E1,0E0,1.833125E2,3.48625E2,3.5265625E2,6.2038794E2,5.8629272E1,1.27011894E2,2.0229251E2,0E0,1.896615E2,1.5596121E2,3.4934927E2,6.121206E2,1.16895905E2,8.777588E1,3.3867188E1,8.183909E0,3.3468984E3,1.0303232E3,3.479883E1,1.2229163E2,2.8031262E2,2.9069824E0,2.1401172E2,1.0933594E2,2.691226E3,3.643672E2,2.0869727E2,4.0234375E0,3.2712482E1,3.6484375E0,0E0,0E0,0E0,0E0,0E0,0E0,0E0,0E0,0E0,0E0,0E0,0E0,0E0,0E0,0E0,0E0,0E0,0E0,0E0,0E0,0E0,0E0,0E0,0E0,0E0,0E0,0E0,0E0,0E0,0E0,0E0,0E0,0E0,0E0,0E0,0E0,0E0,0E0,0E0,0E0,0E0,0E0,0E0,0E0,0E0,0E0,0E0,0E0,0E0,0E0,0E0,0E0,0E0,0E0,0E0,0E0,0E0,0E0],"parents":[2147483647,0,0,1,1,2,2,3,3,4,4,5,5,6,6,7,7,8,8,9,9,10,10,11,11,12,12,13,13,14,14,15,15,16,16,17,17,18,18,19,19,20,20,21,21,22,22,23,23,24,24,25,25,26,26,27,27,28,28,29,29,31,31,32,32,33,33,34,34,35,35,36,36,37,37,39,39,40,40,41,41,42,42,43,43,44,44,45,45,46,46,47,47,48,48,49,49,50,50,51,51,52,52,53,53,54,54,55,55,56,56,57,57,58,58,59,59,60,60],"right_children":[2,4,6,8,10,12,14,16,18,20,22,24,26,28,30,32,34,36,38,40,42,44,46,48,50,52,54,56,58,60,-1,62,64,66,68,70,72,74,-1,76,78,80,82,84,86,88,90,92,94,96,98,100,102,104,106,108,110,112,114,116,118,-1,-1,-1,-1,-1,-1,-1,-1,-1,-1,-1,-1,-1,-1,-1,-1,-1,-1,-1,-1,-1,-1,-1,-1,-1,-1,-1,-1,-1,-1,-1,-1,-1,-1,-1,-1,-1,-1,-1,-1,-1,-1,-1,-1,-1,-1,-1,-1,-1,-1,-1,-1,-1,-1,-1,-1,-1,-1],"split_conditions":[8.75E-1,6.875E-1,1.5403976E0,1E0,8.222656E-1,6.25E-1,1E0,1.2998238E0,1.2722893E0,6.5724754E-1,9.003906E-1,1E0,6.875E-1,2.2328033E0,2E0,5.957031E-1,9.9998856E-1,9.5650005E-1,2E0,7.2265625E-1,1.1465626E0,7.0003736E-1,1.6225368E0,4.0625E-1,9.9996185E-1,1E0,8.046875E-1,5.8203125E-1,3.488655E0,1.3226188E-4,1.9999905E-1,9.999504E-1,8.407879E-1,9.752121E-1,3.6914062E-1,-1.122E1,2E0,4.9609375E-1,1.9963928E-1,9.9992466E-1,4.7528648E-1,-1.9345E1,1.3729728E0,8.59375E-1,1.3729728E0,9.472656E-1,1.828865E0,1E0,1.0208282E0,2E0,2E0,1.1552372E0,2E0,1E0,8.7890625E-1,4.3405813E-1,6.9921875E-1,6.875E-1,3.1E-3,7.109375E-1,-2.97871E1,-1.9865079E-1,-1.9012016E-1,-1.9092739E-1,-1.4829849E-1,-1.9156161E-1,-1.5595402E-1,-1.7378168E-1,-3.6420636E-2,-1.9148465E-1,-1.2992426E-2,-2.0728564E-2,1.9414707E-1,1.392118E-1,-9.167027E-2,-7.499524E-2,-1.79165E-1,-5.9686657E-2,-1.0554686E-3,-1.4808607E-1,3.0814279E-2,1.0082456E-1,-1.6029572E-1,3.3861082E-2,1.01453565E-1,1.4358927E-1,2.1079393E-2,1.7278755E-1,1.9081968E-1,-1.7419355E-1,1.1580079E-2,9.252395E-2,-1.4390658E-1,-7.84738E-2,-2.153529E-2,1.7761329E-1,1.99929E-1,-1.590023E-2,1.9637161E-1,1.7773915E-2,7.822523E-2,1.7541698E-1,1.9950955E-1,1.5046506E-1,1.9660822E-1,1.7826207E-1,1.9331531E-1,8.851738E-2,-5.2678447E-2,1.2723932E-1,1.8792605E-1,1.6014132E-1,1.9691579E-1,9.660752E-2,1.9796713E-1,-1.5789475E-1,1.7494784E-1,1.8657272E-1,1.9810635E-1],"split_indices":[39,38,33,27,38,38,27,33,33,33,38,27,38,33,27,38,31,33,27,38,33,33,34,38,31,27,38,38,33,30,0,31,33,31,38,5,27,38,0,31,33,4,34,38,34,38,33,26,33,27,27,33,27,27,38,30,38,38,0,38,24,0,0,0,0,0,0,0,0,0,0,0,0,0,0,0,0,0,0,0,0,0,0,0,0,0,0,0,0,0,0,0,0,0,0,0,0,0,0,0,0,0,0,0,0,0,0,0,0,0,0,0,0,0,0,0,0,0,0],"split_type":[0,0,0,0,0,0,0,0,0,0,0,0,0,0,0,0,0,0,0,0,0,0,0,0,0,0,0,0,0,0,0,0,0,0,0,0,0,0,0,0,0,0,0,0,0,0,0,0,0,0,0,0,0,0,0,0,0,0,0,0,0,0,0,0,0,0,0,0,0,0,0,0,0,0,0,0,0,0,0,0,0,0,0,0,0,0,0,0,0,0,0,0,0,0,0,0,0,0,0,0,0,0,0,0,0,0,0,0,0,0,0,0,0,0,0,0,0,0,0],"sum_hessian":[6.1205194E5,2.770883E5,3.3496366E5,2.5715512E5,1.9933172E4,9.161094E4,2.433527E5,2.5605389E5,1.1012344E3,1.096857E4,8.964602E3,5.3947984E4,3.7662957E4,2.94052E4,2.139475E5,2.4214238E5,1.3911519E4,3.004918E2,8.007426E2,2.7400554E3,8.228515E3,4.383517E3,4.5810845E3,4.9958043E4,3.9899424E3,4.332645E3,3.333031E4,1.1640303E4,1.7764896E4,3.862384E3,2.1008512E5,2.3401812E5,8.124255E3,1.2299213E4,1.6123048E3,1.2697085E2,1.7352095E2,2.4731273E2,5.534299E2,8.6950446E2,1.870551E3,5.423154E3,2.8053608E3,1.0273508E3,3.356166E3,4.571089E3,9.995835E0,3.588039E4,1.4077652E4,3.88263E3,1.073126E2,3.7682195E3,5.644257E2,1.2070214E4,2.1260098E4,5.5561743E3,6.084128E3,6.986225E3,1.0778672E4,1.0733342E1,3.8516506E3,2.0459486E5,2.9423268E4,4.9472334E3,3.1770212E3,7.96735E3,4.3318633E3,4.594292E2,1.1528756E3,1.04495834E2,2.2475014E1,1.4035008E2,3.3170876E1,2.0134189E2,4.5970848E1,6.2628357E2,2.4322086E2,7.718545E2,1.0986965E3,1.1046668E2,5.312687E3,2.7133818E3,9.197918E1,4.9256287E2,5.34788E2,3.2962454E3,5.9920876E1,2.2736943E3,2.2973945E3,6.75E0,3.2458355E0,6.0843805E2,3.5271953E4,9.229312E3,4.8483403E3,1.0665972E3,2.8160327E3,5.3191696E1,5.4120903E1,2.6967478E3,1.0714718E3,1.5764603E2,4.067797E2,1.0950862E4,1.1193514E3,7.9620386E3,1.3298059E4,2.308777E3,3.2473975E3,1.2565471E3,4.827581E3,4.620326E3,2.365899E3,6.737507E0,1.0771935E4,3.75E0,6.983342E0,6.841717E2,3.167479E3],"tree_param":{"num_deleted":"0","num_feature":"40","num_nodes":"119","size_leaf_vector":"1"}},{"base_weights":[-1.2539687E-3,-1.5812454E0,1.306159E0,-1.7633879E0,7.521662E-1,2.585329E-1,1.8153421E0,-1.7781215E0,8.691687E-1,1.7685005E-1,1.3178811E0,-4.817852E-1,1.5692985E0,1.2457626E0,1.81622E0,-1.7876143E0,-1.5654092E0,2.0775716E-1,1.844738E-1,-6.562795E-1,2.984197E-1,9.803977E-1,1.5797735E0,-9.045067E-1,1.4600961E0,1.2647147E0,1.69266E0,8.0364394E-1,1.823347E-1,1.7525172E0,1.818951E-1,-1.6737142E0,-1.7983758E0,-7.317926E-1,-1.6202964E0,-1.17731E0,4.668976E-1,-1.1415536E0,-3.8769728E-1,1.840608E-1,9.531878E-1,1.8704054E-1,1.0471716E0,1.4057924E0,1.6930413E0,-1.1030623E0,-6.930752E-2,6.718598E-1,1.6925259E0,6.244069E-1,1.3580656E0,1.610757E0,1.763709E0,4.097592E-1,1.6087079E0,1.6565251E0,1.7908685E0,-1.7911221E-1,-1.4744298E-1,-1.7989586E-1,-6.0068544E-2,-1.7785668E-2,-1.6942716E-1,-1.6762228E-1,-9.59905E-2,-1.5805916E-1,-1.1849183E-2,6.885948E-2,-1.0553109E-1,-1.2799071E-1,-2.7021006E-2,-1.7868012E-1,-2.6924077E-2,1.3721228E-2,1.7738791E-1,4.966831E-2,1.2133273E-1,5.0976027E-2,-7.073911E-2,1.071561E-1,-8.786242E-2,5.8162496E-3,1.4250758E-1,1.6983345E-1,-7.8566976E-2,-1.1820147E-1,-3.6352325E-2,-3.9171763E-2,2.227386E-2,1.1822895E-1,-5.6056157E-3,1.7674328E-1,1.3113838E-1,3.7069228E-2,1.3142882E-1,1.3384756E-1,1.7499165E-1,1.5832321E-1,1.762144E-1,-3.4702074E-2,1.7648171E-1,1.0315614E-1,-4.1697077E-2,-5.8490437E-2,1.7902221E-1,1.5334214E-1,1.7937768E-1,1.7947172E-1,1.4785777E-1],"categories":[],"categories_nodes":[],"categories_segments":[],"categories_sizes":[],"default_left":[0,0,0,0,0,0,0,0,0,0,0,0,0,0,0,0,0,0,0,0,0,0,0,0,0,0,0,0,0,0,0,0,0,0,0,0,0,0,0,0,0,0,0,0,0,0,0,0,0,0,0,0,0,0,0,0,0,0,0,0,0,0,0,0,0,0,0,0,0,0,0,0,0,0,0,0,0,0,0,0,0,0,0,0,0,0,0,0,0,0,0,0,0,0,0,0,0,0,0,0,0,0,0,0,0,0,0,0,0],"id":1,"left_children":[1,3,5,7,9,11,13,15,17,19,21,23,25,27,29,31,33,35,-1,37,39,41,43,45,47,49,51,53,-1,55,-1,57,59,61,63,65,67,69,71,73,75,77,79,81,83,85,87,89,91,93,95,97,99,101,103,105,107,-1,-1,-1,-1,-1,-1,-1,-1,-1,-1,-1,-1,-1,-1,-1,-1,-1,-1,-1,-1,-1,-1,-1,-1,-1,-1,-1,-1,-1,-1,-1,-1,-1,-1,-1,-1,-1,-1,-1,-1,-1,-1,-1,-1,-1,-1,-1,-1,-1,-1,-1,-1],"loss_changes":[1.2536376E6,1.1679319E5,1.7714569E5,9.88825E3,6.4757686E3,1.0540017E5,1.095E2,5.09125E2,9.154303E2,9.994856E2,8.851582E2,5.6980773E4,1.4709219E3,8.7183655E1,3.5625E1,2.94375E2,4.9466797E2,3.0455136E2,0E0,1.6334644E2,6.445753E2,2.3216553E2,1.0890723E2,9.453199E3,2.2723848E3,6.748965E2,1.5950781E2,6.2261307E1,0E0,3.0902344E1,0E0,4.8778906E2,1.536875E2,3.5759625E2,3.7388867E2,5.6934387E1,2.4174722E2,5.356659E1,1.3383875E2,5.458169E2,1.5140894E2,9.900101E1,1.909541E2,5.793799E1,4.6146484E1,2.6886875E3,1.0311316E3,1.0506495E3,2.7127148E2,2.5161621E2,7.3390625E1,5.126172E1,3.5535156E1,6.961163E1,2.6866653E1,4.1847656E1,5.2304688E0,0E0,0E0,0E0,0E0,0E0,0E0,0E0,0E0,0E0,0E0,0E0,0E0,0E0,0E0,0E0,0E0,0E0,0E0,0E0,0E0,0E0,0E0,0E0,0E0,0E0,0E0,0E0,0E0,0E0,0E0,0E0,0E0,0E0,0E0,0E0,0E0,0E0,0E0,0E0,0E0,0E0,0E0,0E0,0E0,0E0,0E0,0E0,0E0,0E0,0E0,0E0,0E0],"parents":[2147483647,0,0,1,1,2,2,3,3,4,4,5,5,6,6,7,7,8,8,9,9,10,10,11,11,12,12,13,13,14,14,15,15,16,16,17,17,19,19,20,20,21,21,22,22,23,23,24,24,25,25,26,26,27,27,29,29,31,31,32,32,33,33,34,34,35,35,36,36,37,37,38,38,39,39,40,40,41,41,42,42,43,43,44,44,45,45,46,46,47,47,48,48,49,49,50,50,51,51,52,52,53,53,54,54,55,55,56,56],"right_children":[2,4,6,8,10,12,14,16,18,20,22,24,26,28,30,32,34,36,-1,38,40,42,44,46,48,50,52,54,-1,56,-1,58,60,62,64,66,68,70,72,74,76,78,80,82,84,86,88,90,92,94,96,98,100,102,104,106,108,-1,-1,-1,-1,-1,-1,-1,-1,-1,-1,-1,-1,-1,-1,-1,-1,-1,-1,-1,-1,-1,-1,-1,-1,-1,-1,-1,-1,-1,-1,-1,-1,-1,-1,-1,-1,-1,-1,-1,-1,-1,-1,-1,-1,-1,-1,-1,-1,-1,-1,-1,-1],"split_conditions":[8.75E-1,6.875E-1,1E0,2E0,8.046875E-1,6.6796875E-1,2.1219254E-4,5.8203125E-1,1E1,-1.9167E1,8.7890625E-1,-2.34561E1,7.753906E-1,1E1,1E1,4.062019E-4,4.329887E-5,3.4375E-1,1.844738E-1,7.2265625E-1,4.2967492E-1,-1.7321E1,9.238281E-1,5.019531E-1,2.6497E0,6.875E-1,8.7890625E-1,7.2265625E-1,1.823347E-1,-3.01252E1,1.818951E-1,3.8085938E-1,1E0,6.25E-1,4.906125E-1,8.67199E-1,6.015625E-1,4.736E-1,-2.0595E1,5E0,7.5E-1,6.329918E-2,1.3022826E0,-4.23339E1,1.6225368E0,-2.5696E1,5.8203125E-1,5.1487498E-2,5.078125E-2,-2.66264E1,1.297595E0,-2.40987E1,1.3389951E-2,-2.1291E1,3.311035E-5,6.9921875E-1,-2.802E0,-1.7911221E-1,-1.4744298E-1,-1.7989586E-1,-6.0068544E-2,-1.7785668E-2,-1.6942716E-1,-1.6762228E-1,-9.59905E-2,-1.5805916E-1,-1.1849183E-2,6.885948E-2,-1.0553109E-1,-1.2799071E-1,-2.7021006E-2,-1.7868012E-1,-2.6924077E-2,1.3721228E-2,1.7738791E-1,4.966831E-2,1.2133273E-1,5.0976027E-2,-7.073911E-2,1.071561E-1,-8.786242E-2,5.8162496E-3,1.4250758E-1,1.6983345E-1,-7.8566976E-2,-1.1820147E-1,-3.6352325E-2,-3.9171763E-2,2.227386E-2,1.1822895E-1,-5.6056157E-3,1.7674328E-1,1.3113838E-1,3.7069228E-2,1.3142882E-1,1.3384756E-1,1.7499165E-1,1.5832321E-1,1.762144E-1,-3.4702074E-2,1.7648171E-1,1.0315614E-1,-4.1697077E-2,-5.8490437E-2,1.7902221E-1,1.5334214E-1,1.7937768E-1,1.7947172E-1,1.4785777E-1],"split_indices":[39,38,37,37,38,38,29,38,37,6,38,24,38,37,37,36,36,38,0,38,29,4,38,38,23,38,38,38,0,24,0,38,37,38,29,34,38,23,4,37,39,29,34,24,34,24,38,35,38,24,36,24,34,15,30,38,6,0,0,0,0,0,0,0,0,0,0,0,0,0,0,0,0,0,0,0,0,0,0,0,0,0,0,0,0,0,0,0,0,0,0,0,0,0,0,0,0,0,0,0,0,0,0,0,0,0,0,0,0],"split_type":[0,0,0,0,0,0,0,0,0,0,0,0,0,0,0,0,0,0,0,0,0,0,0,0,0,0,0,0,0,0,0,0,0,0,0,0,0,0,0,0,0,0,0,0,0,0,0,0,0,0,0,0,0,0,0,0,0,0,0,0,0,0,0,0,0,0,0,0,0,0,0,0,0,0,0,0,0,0,0,0,0,0,0,0,0,0,0,0,0,0,0,0,0,0,0,0,0,0,0,0,0,0,0,0,0,0,0,0,0],"sum_hessian":[6.068804E5,2.7479456E5,3.320858E5,2.5489786E5,1.9896693E4,1.0861526E5,2.2347056E5,2.5347955E5,1.4183097E3,9.865287E3,1.0031407E4,6.941207E4,3.9203184E4,3.461518E2,2.231244E5,2.426434E5,1.083614E4,8.459737E2,5.72336E2,1.2556675E3,8.609619E3,4.385215E3,5.6461924E3,5.700367E4,1.2408398E4,1.1304136E4,2.7899049E4,1.9742326E2,1.4872855E2,9.198532E3,2.1392588E5,2.0959697E4,2.2168372E5,6.7028656E2,1.0165853E4,1.3277388E2,7.1319977E2,4.462083E2,8.0945917E2,7.3305747E3,1.2790447E3,3.4072925E2,4.0444858E3,2.2316907E3,3.4145015E3,4.605459E4,1.094908E4,2.82657E3,9.581828E3,1.4393195E3,9.864816E3,1.297061E4,1.49284375E4,1.33578E2,6.3845257E1,2.6385352E3,6.5599966E3,1.3184242E4,7.7754556E3,2.2157538E5,1.0833933E2,4.2618747E2,2.4409908E2,9.370737E3,7.9511536E2,9.579485E1,3.697903E1,6.23011E2,9.018881E1,3.8466217E2,6.1546143E1,6.2084755E1,7.4737445E2,7.121797E3,2.0877773E2,4.65345E2,8.1369965E2,2.5070316E2,9.0026085E1,3.9943425E3,5.0143135E1,3.1539694E1,2.200151E3,3.4075398E3,6.961787E0,4.161158E4,4.443013E3,5.203848E3,5.7452324E3,1.6611284E3,1.1654417E3,8.004954E3,1.5768744E3,1.0534385E3,3.85881E2,9.399326E3,4.6549048E2,1.0984838E4,1.9857732E3,7.669791E0,1.4920768E4,7.609642E1,5.7481583E1,4.7094035E0,5.9135853E1,1.3973748E3,1.2411605E3,6.475445E3,8.455187E1],"tree_param":{"num_deleted":"0","num_feature":"40","num_nodes":"109","size_leaf_vector":"1"}},{"base_weights":[-5.6515005E-6,-1.4585719E0,1.2046833E0,-1.6286502E0,6.827473E-1,9.0428375E-2,1.6326994E0,-1.6428034E0,8.077631E-1,2.0702918E-1,1.2768484E0,-7.97605E-1,1.3361903E0,1.2359332E0,1.6818587E0,-1.6598476E0,-1.4368027E0,-8.1399485E-2,1.4555703E0,-5.141272E-1,4.1622818E-1,1.0276564E0,1.5180194E0,-1.0161808E0,1.5818514E0,4.0790573E-1,1.4692599E0,6.903067E-1,1.5457667E0,4.009067E-1,1.6818864E0,-1.6664574E0,-1.466469E0,-5.288902E-1,-1.5099819E0,9.6981424E-1,-5.7225955E-1,1.0447245E0,1.684776E-1,-9.376926E-1,-2.0934848E-1,2.2237147E-1,8.057564E-1,5.206518E-1,1.168017E0,1.4324809E0,1.6012447E0,-1.2158294E0,-5.805934E-1,1.0321685E0,1.6261071E0,2.0300135E-1,1.6115012E0,1.2614399E0,1.5647743E0,-9.8392546E-2,1.4561447E0,1.3078336E0,1.6315902E0,1.2973109E-1,-1.3416822E-1,1.6541884E0,1.6826284E-1,-1.6818117E-1,-1.643049E-1,-1.6118471E-1,-1.2224708E-1,-1.5982176E-1,6.8574348E-3,-1.3006176E-1,-1.617282E-1,-1.1241072E-1,1.2254333E-1,-1.466528E-1,1.2977943E-2,1.1914565E-1,-1.7072897E-1,-1.4626794E-1,-7.035618E-2,-5.7388414E-2,6.5373455E-4,3.8308106E-2,-8.979558E-3,1.4895253E-2,9.2925906E-2,-1.212006E-1,5.812583E-2,1.1843486E-1,-3.3694096E-2,-1.9620912E-1,1.4408852E-1,-1.9798886E-3,1.6033438E-1,9.48089E-2,-1.2554847E-1,-7.569663E-2,-2.3587534E-2,8.794341E-2,1.6665463E-1,1.5127872E-1,1.6864894E-1,-2.6178626E-2,3.474513E-2,1.4906593E-1,1.6830324E-1,1.2121775E-1,1.6319846E-1,1.4968465E-1,1.6379958E-1,5.3226467E-2,-7.4643515E-2,1.1762219E-1,1.6196135E-1,1.0130042E-1,1.6052914E-1,-1.6250807E-1,1.6327302E-1,1.5116684E-2,1.6566479E-1],"categories":[],"categories_nodes":[],"categories_segments":[],"categories_sizes":[],"default_left":[0,0,0,0,0,0,0,0,0,0,0,0,0,0,0,0,0,0,0,0,0,0,0,0,0,0,0,0,0,0,0,0,0,0,0,0,0,0,0,0,0,0,0,0,0,0,0,0,0,0,0,0,0,0,0,0,0,0,0,0,0,0,0,0,0,0,0,0,0,0,0,0,0,0,0,0,0,0,0,0,0,0,0,0,0,0,0,0,0,0,0,0,0,0,0,0,0,0,0,0,0,0,0,0,0,0,0,0,0,0,0,0,0,0,0,0,0,0,0],"id":2,"left_children":[1,3,5,7,9,11,13,15,17,19,21,23,25,27,29,31,33,35,37,39,41,43,45,47,49,51,53,55,57,59,61,63,65,67,69,71,73,75,-1,77,79,81,83,85,87,89,91,93,95,97,99,101,103,105,107,109,111,113,115,-1,-1,117,-1,-1,-1,-1,-1,-1,-1,-1,-1,-1,-1,-1,-1,-1,-1,-1,-1,-1,-1,-1,-1,-1,-1,-1,-1,-1,-1,-1,-1,-1,-1,-1,-1,-1,-1,-1,-1,-1,-1,-1,-1,-1,-1,-1,-1,-1,-1,-1,-1,-1,-1,-1,-1,-1,-1,-1,-1],"loss_changes":[1.0425681E6,9.7746375E4,1.5497475E5,8.5753125E3,5.581423E3,9.976776E4,4.5770625E3,8.655625E2,8.276651E2,1.6549989E3,5.26209E2,2.7385066E4,4.6355938E3,4.374871E3,6.75E0,2.893125E2,1.2547852E3,3.1350388E2,7.6513306E1,3.1825806E2,6.418893E2,3.0697363E2,2.9460938E1,4.19291E3,1.0608984E2,1.1605334E3,6.496172E2,5.663945E3,3.3498047E2,1.0869414E1,1.5E0,7.6625E1,2.659912E2,9.016522E2,3.9075E2,1.04907135E2,2.601463E2,1.2329434E2,0E0,1.2581671E2,1.13004074E2,2.849259E2,2.2902234E2,9.930202E1,8.3578125E1,6.5854004E1,7.695801E0,2.8385781E3,9.2139404E2,3.0782532E1,2.5488281E1,2.702176E2,3.4090576E0,1.8679102E2,1.0938672E2,1.888738E3,2.1578906E2,3.826167E2,4.76875E1,0E0,0E0,2.0111328E1,0E0,0E0,0E0,0E0,0E0,0E0,0E0,0E0,0E0,0E0,0E0,0E0,0E0,0E0,0E0,0E0,0E0,0E0,0E0,0E0,0E0,0E0,0E0,0E0,0E0,0E0,0E0,0E0,0E0,0E0,0E0,0E0,0E0,0E0,0E0,0E0,0E0,0E0,0E0,0E0,0E0,0E0,0E0,0E0,0E0,0E0,0E0,0E0,0E0,0E0,0E0,0E0,0E0,0E0,0E0,0E0,0E0],"parents":[2147483647,0,0,1,1,2,2,3,3,4,4,5,5,6,6,7,7,8,8,9,9,10,10,11,11,12,12,13,13,14,14,15,15,16,16,17,17,18,18,19,19,20,20,21,21,22,22,23,23,24,24,25,25,26,26,27,27,28,28,29,29,30,30,31,31,32,32,33,33,34,34,35,35,36,36,37,37,39,39,40,40,41,41,42,42,43,43,44,44,45,45,46,46,47,47,48,48,49,49,50,50,51,51,52,52,53,53,54,54,55,55,56,56,57,57,58,58,61,61],"right_children":[2,4,6,8,10,12,14,16,18,20,22,24,26,28,30,32,34,36,38,40,42,44,46,48,50,52,54,56,58,60,62,64,66,68,70,72,74,76,-1,78,80,82,84,86,88,90,92,94,96,98,100,102,104,106,108,110,112,114,116,-1,-1,118,-1,-1,-1,-1,-1,-1,-1,-1,-1,-1,-1,-1,-1,-1,-1,-1,-1,-1,-1,-1,-1,-1,-1,-1,-1,-1,-1,-1,-1,-1,-1,-1,-1,-1,-1,-1,-1,-1,-1,-1,-1,-1,-1,-1,-1,-1,-1,-1,-1,-1,-1,-1,-1,-1,-1,-1,-1],"split_conditions":[8.75E-1,6.875E-1,1.5403976E0,2E0,8.222656E-1,6.171875E-1,1E0,1.2242131E0,1.3303223E0,6.3572514E-1,9.003906E-1,1E0,6.875E-1,2.0657654E0,-2.3497E1,5.957031E-1,1.5E-4,6.6145025E-5,2E0,7.34375E-1,1.1465626E0,6.7160034E-1,9.472656E-1,3.8085938E-1,-3.42198E1,2E0,7.890625E-1,5.8984375E-1,2.6995392E0,-2.2273E1,1E1,2.8125E-1,8.367233E-1,3.7695312E-1,1.934907E-1,-3.92509E1,9.2288E-1,6.484375E-1,1.684776E-1,3.8401318E-1,4.4745E-1,3.750695E-1,-1.692E1,1.6813707E-1,-2.34561E1,1.854477E-1,-2.6771E1,1E0,1.0208282E0,2E0,1E1,-1.6469E1,1E1,1E0,9.003906E-1,7.040351E-1,7.753906E-1,5.957031E-1,-3.06558E1,1.2973109E-1,-1.3416822E-1,1.3226188E-4,1.6826284E-1,-1.6818117E-1,-1.643049E-1,-1.6118471E-1,-1.2224708E-1,-1.5982176E-1,6.8574348E-3,-1.3006176E-1,-1.617282E-1,-1.1241072E-1,1.2254333E-1,-1.466528E-1,1.2977943E-2,1.1914565E-1,-1.7072897E-1,-1.4626794E-1,-7.035618E-2,-5.7388414E-2,6.5373455E-4,3.8308106E-2,-8.979558E-3,1.4895253E-2,9.2925906E-2,-1.212006E-1,5.812583E-2,1.1843486E-1,-3.3694096E-2,-1.9620912E-1,1.4408852E-1,-1.9798886E-3,1.6033438E-1,9.48089E-2,-1.2554847E-1,-7.569663E-2,-2.3587534E-2,8.794341E-2,1.6665463E-1,1.5127872E-1,1.6864894E-1,-2.6178626E-2,3.474513E-2,1.4906593E-1,1.6830324E-1,1.2121775E-1,1.6319846E-1,1.4968465E-1,1.6379958E-1,5.3226467E-2,-7.4643515E-2,1.1762219E-1,1.6196135E-1,1.0130042E-1,1.6052914E-1,-1.6250807E-1,1.6327302E-1,1.5116684E-2,1.6566479E-1],"split_indices":[39,38,33,37,38,38,37,33,33,33,38,37,38,33,22,38,36,36,27,38,33,33,38,38,24,37,38,38,33,12,37,38,33,38,36,24,33,38,0,33,33,36,7,33,24,33,16,26,33,27,37,7,37,37,38,36,38,38,24,0,0,30,0,0,0,0,0,0,0,0,0,0,0,0,0,0,0,0,0,0,0,0,0,0,0,0,0,0,0,0,0,0,0,0,0,0,0,0,0,0,0,0,0,0,0,0,0,0,0,0,0,0,0,0,0,0,0,0,0],"split_type":[0,0,0,0,0,0,0,0,0,0,0,0,0,0,0,0,0,0,0,0,0,0,0,0,0,0,0,0,0,0,0,0,0,0,0,0,0,0,0,0,0,0,0,0,0,0,0,0,0,0,0,0,0,0,0,0,0,0,0,0,0,0,0,0,0,0,0,0,0,0,0,0,0,0,0,0,0,0,0,0,0,0,0,0,0,0,0,0,0,0,0,0,0,0,0,0,0,0,0,0,0,0,0,0,0,0,0,0,0,0,0,0,0,0,0,0,0,0,0],"sum_hessian":[5.933376E5,2.683885E5,3.2494916E5,2.4864003E5,1.9748465E4,9.018128E4,2.3476786E5,2.4720433E5,1.4356981E3,1.0967635E4,8.78083E3,5.265025E4,3.753103E4,2.5883945E4,2.0888392E5,2.283075E5,1.8896824E4,6.0549146E2,8.302067E2,2.4658462E3,8.501789E3,4.3211875E3,4.4596426E3,4.8221242E4,4.4290073E3,4.7060435E3,3.282499E4,9.375908E3,1.6508037E4,4.844086E0,2.0887908E5,2.2075434E5,7.553164E3,1.4101184E3,1.7486705E4,1.9242438E2,4.1306705E2,2.9929147E2,5.309152E2,1.0309749E3,1.4348713E3,5.677724E3,2.8240645E3,9.379328E2,3.3832546E3,2.2082378E3,2.251405E3,3.3064535E4,1.5156708E4,3.3182837E2,4.0971787E3,4.0224207E3,6.8362256E2,1.0340456E4,2.2484531E4,4.6194414E3,4.7564663E3,4.3803604E3,1.2127678E4,3.3673937E0,1.4766924E0,5.5070137E3,2.0337206E5,1.332691E5,8.748524E4,4.729593E3,2.823571E3,5.0485904E2,9.052594E2,5.929729E3,1.1556977E4,2.0565226E1,1.7185916E2,1.8118356E2,2.3188348E2,2.8467996E2,1.4611511E1,3.1635992E2,7.146149E2,5.330788E2,9.017925E2,3.7479702E3,1.929754E3,4.4732672E2,2.3767378E3,3.105698E1,9.0687585E2,3.347145E3,3.610959E1,4.87952E0,2.2033582E3,2.9004917E0,2.2485044E3,5.9461505E2,3.246992E4,1.0025848E4,5.1308604E3,2.693623E2,6.2466076E1,1.433314E3,2.663865E3,9.535216E2,3.0688992E3,2.6231525E2,4.213073E2,9.130822E3,1.2096345E3,1.1675035E4,1.0809496E4,2.3412146E3,2.2782268E3,1.7566259E3,2.9998406E3,2.2021118E3,2.1782483E3,3.7455907E0,1.2123932E4,9.098817E0,5.4979146E3],"tree_param":{"num_deleted":"0","num_feature":"40","num_nodes":"119","size_leaf_vector":"1"}},{"base_weights":[-6.85498E-4,-1.3648704E0,1.1215073E0,-1.5249509E0,6.1220694E-1,6.662971E-2,1.5233063E0,-1.538259E0,7.3062736E-1,1.10368855E-1,1.1154503E0,-7.4410665E-1,1.2456911E0,1.1212353E0,1.5760552E0,-1.5511307E0,-1.2790785E0,-4.144522E-1,1.206116E0,-4.0650612E-1,3.6141983E-1,8.7903273E-1,1.4102359E0,-9.3690944E-1,1.4692132E0,3.775752E-1,1.3608929E0,6.273127E-1,1.437108E0,1.544218E0,1.5769266E-1,-1.557902E0,-1.3577806E0,-2.8521177E-1,-1.3714025E0,1.1386522E0,-8.810487E-1,7.0222956E-1,1.5865073E-1,-8.538067E-1,-2.3298752E-1,3.964151E-1,-1.3937241E0,4.5744866E-1,1.0195946E0,1.4159617E0,-1.1384933E0,-1.0970439E0,-4.3533808E-1,1.5098791E0,8.4421504E-1,2.0098272E-1,1.4676805E0,1.1787037E0,1.4673755E0,-7.5237975E-2,1.3474152E0,1.2014604E0,1.5222858E0,2.1779218E-1,1.5470041E0,-1.5675183E-1,-1.5071237E-1,-5.9104737E-2,-1.4051962E-1,-1.4569536E-1,2.7062232E-2,-1.1544106E-1,-1.4854647E-1,1.531911E-1,-1.04833506E-1,-1.3626757E-1,1.4377596E-2,8.912893E-2,-1.10722125E-1,-1.0712381E-1,-1.4123492E-3,-1.3206141E-2,-8.188062E-2,1.8841958E-2,7.086836E-2,8.578529E-2,-1.8039338E-1,-8.1847176E-2,5.1247012E-2,1.04655646E-1,1.0057058E-3,1.3294521E-1,1.4985085E-1,-1.7260289E-1,4.9122524E-2,8.432519E-2,-1.12917714E-1,-6.1198037E-2,-1.3836277E-2,1.3916798E-1,1.5796627E-1,4.72953E-2,1.587282E-1,1.0736082E-2,7.631426E-2,1.2415264E-1,1.5385647E-1,1.1350518E-1,1.5304358E-1,1.3814694E-1,1.5181467E-1,4.736719E-2,-6.469281E-2,1.0526466E-1,1.4990704E-1,9.124038E-2,1.4990552E-1,1.4360356E-1,1.5720935E-1,-1.5906325E-1,1.5158622E-1,1.1843367E-2,1.5476747E-1],"categories":[],"categories_nodes":[],"categories_segments":[],"categories_sizes":[],"default_left":[0,0,0,0,0,0,0,0,0,0,0,0,0,0,0,0,0,0,0,0,0,0,0,0,0,0,0,0,0,0,0,0,0,0,0,0,0,0,0,0,0,0,0,0,0,0,0,0,0,0,0,0,0,0,0,0,0,0,0,0,0,0,0,0,0,0,0,0,0,0,0,0,0,0,0,0,0,0,0,0,0,0,0,0,0,0,0,0,0,0,0,0,0,0,0,0,0,0,0,0,0,0,0,0,0,0,0,0,0,0,0,0,0,0,0,0,0,0,0],"id":3,"left_children":[1,3,5,7,9,11,13,15,17,19,21,23,25,27,29,31,33,35,37,39,41,43,45,47,49,51,53,55,57,59,-1,61,63,65,67,69,71,73,-1,75,77,79,81,83,85,87,89,91,93,95,97,99,101,103,105,107,109,111,113,115,117,-1,-1,-1,-1,-1,-1,-1,-1,-1,-1,-1,-1,-1,-1,-1,-1,-1,-1,-1,-1,-1,-1,-1,-1,-1,-1,-1,-1,-1,-1,-1,-1,-1,-1,-1,-1,-1,-1,-1,-1,-1,-1,-1,-1,-1,-1,-1,-1,-1,-1,-1,-1,-1,-1,-1,-1,-1,-1],"loss_changes":[8.787169E5,8.199272E4,1.3348269E5,7.1950625E3,4.9006875E3,8.303977E4,4.8351875E3,7.92875E2,7.662467E2,1.2611033E3,6.740176E2,2.1967604E4,3.5392734E3,4.126297E3,3.125E0,2.950625E2,1.0344844E3,3.0057916E2,1.8941138E2,2.464079E2,4.0232153E2,3.183169E2,6.4518555E1,3.802707E3,1.03569336E2,7.982362E2,6.0447656E2,5.2212676E3,3.2201562E2,1.9686523E1,0E0,1.0475E2,2.786621E2,6.255704E2,2.5369922E2,8.411913E1,1.5737988E2,1.4787799E2,0E0,1.6205176E2,1.3532391E2,4.1646204E2,1.1985741E2,9.4978424E1,1.09779785E2,2.872461E1,1.0630317E1,2.2387031E3,6.0112744E2,2.9737305E1,6.939641E1,1.8786057E2,7.357666E0,1.7531543E2,8.389844E1,1.6398812E3,2.2625488E2,3.6751855E2,4.8632812E1,3.1805212E1,4.995117E0,0E0,0E0,0E0,0E0,0E0,0E0,0E0,0E0,0E0,0E0,0E0,0E0,0E0,0E0,0E0,0E0,0E0,0E0,0E0,0E0,0E0,0E0,0E0,0E0,0E0,0E0,0E0,0E0,0E0,0E0,0E0,0E0,0E0,0E0,0E0,0E0,0E0,0E0,0E0,0E0,0E0,0E0,0E0,0E0,0E0,0E0,0E0,0E0,0E0,0E0,0E0,0E0,0E0,0E0,0E0,0E0,0E0,0E0],"parents":[2147483647,0,0,1,1,2,2,3,3,4,4,5,5,6,6,7,7,8,8,9,9,10,10,11,11,12,12,13,13,14,14,15,15,16,16,17,17,18,18,19,19,20,20,21,21,22,22,23,23,24,24,25,25,26,26,27,27,28,28,29,29,31,31,32,32,33,33,34,34,35,35,36,36,37,37,39,39,40,40,41,41,42,42,43,43,44,44,45,45,46,46,47,47,48,48,49,49,50,50,51,51,52,52,53,53,54,54,55,55,56,56,57,57,58,58,59,59,60,60],"right_children":[2,4,6,8,10,12,14,16,18,20,22,24,26,28,30,32,34,36,38,40,42,44,46,48,50,52,54,56,58,60,-1,62,64,66,68,70,72,74,-1,76,78,80,82,84,86,88,90,92,94,96,98,100,102,104,106,108,110,112,114,116,118,-1,-1,-1,-1,-1,-1,-1,-1,-1,-1,-1,-1,-1,-1,-1,-1,-1,-1,-1,-1,-1,-1,-1,-1,-1,-1,-1,-1,-1,-1,-1,-1,-1,-1,-1,-1,-1,-1,-1,-1,-1,-1,-1,-1,-1,-1,-1,-1,-1,-1,-1,-1,-1,-1,-1,-1,-1,-1],"split_conditions":[8.75E-1,6.875E-1,1.5068207E0,2E0,8.046875E-1,6.25E-1,1E0,1.3303223E0,1.1144905E0,7.355623E-1,9.003906E-1,1E0,6.875E-1,2.0657654E0,1E1,5.957031E-1,1.5E-4,4.329887E-5,2E0,4.4745E-1,1.3729728E0,6.965375E-1,1.6225368E0,4.3359375E-1,9.998627E-1,1E0,8.046875E-1,5.8984375E-1,2.6995392E0,1.3226188E-4,1.5769266E-1,9.925251E-1,4.329887E-5,3.7695312E-1,1.8887691E-1,1E0,8E0,6.015625E-1,1.5865073E-1,7.753906E-1,3.5968086E-1,1.1220374E0,2.5E-1,-1.971E1,1.3022826E0,9.472656E-1,1.828865E0,1E0,5.488281E-1,1E1,1E1,1.2998238E0,5E0,1E0,8.7890625E-1,7.040351E-1,7.597656E-1,5.8984375E-1,3.693718E0,6.875E-1,-2.311E1,-1.5675183E-1,-1.5071237E-1,-5.9104737E-2,-1.4051962E-1,-1.4569536E-1,2.7062232E-2,-1.1544106E-1,-1.4854647E-1,1.531911E-1,-1.04833506E-1,-1.3626757E-1,1.4377596E-2,8.912893E-2,-1.10722125E-1,-1.0712381E-1,-1.4123492E-3,-1.3206141E-2,-8.188062E-2,1.8841958E-2,7.086836E-2,8.578529E-2,-1.8039338E-1,-8.1847176E-2,5.1247012E-2,1.04655646E-1,1.0057058E-3,1.3294521E-1,1.4985085E-1,-1.7260289E-1,4.9122524E-2,8.432519E-2,-1.12917714E-1,-6.1198037E-2,-1.3836277E-2,1.3916798E-1,1.5796627E-1,4.72953E-2,1.587282E-1,1.0736082E-2,7.631426E-2,1.2415264E-1,1.5385647E-1,1.1350518E-1,1.5304358E-1,1.3814694E-1,1.5181467E-1,4.736719E-2,-6.469281E-2,1.0526466E-1,1.4990704E-1,9.124038E-2,1.4990552E-1,1.4360356E-1,1.5720935E-1,-1.5906325E-1,1.5158622E-1,1.1843367E-2,1.5476747E-1],"split_indices":[39,38,33,37,38,38,37,33,33,33,38,37,38,33,37,38,36,36,27,33,34,33,34,38,31,37,38,38,33,30,0,33,36,38,36,27,37,38,0,38,30,33,39,4,34,38,33,26,38,37,37,33,37,37,38,36,38,38,33,38,17,0,0,0,0,0,0,0,0,0,0,0,0,0,0,0,0,0,0,0,0,0,0,0,0,0,0,0,0,0,0,0,0,0,0,0,0,0,0,0,0,0,0,0,0,0,0,0,0,0,0,0,0,0,0,0,0,0,0],"split_type":[0,0,0,0,0,0,0,0,0,0,0,0,0,0,0,0,0,0,0,0,0,0,0,0,0,0,0,0,0,0,0,0,0,0,0,0,0,0,0,0,0,0,0,0,0,0,0,0,0,0,0,0,0,0,0,0,0,0,0,0,0,0,0,0,0,0,0,0,0,0,0,0,0,0,0,0,0,0,0,0,0,0,0,0,0,0,0,0,0,0,0,0,0,0,0,0,0,0,0,0,0,0,0,0,0,0,0,0,0,0,0,0,0,0,0,0,0,0,0],"sum_hessian":[5.739931E5,2.5906389E5,3.1492922E5,2.3965933E5,1.9404562E4,8.686808E4,2.2806114E5,2.3825394E5,1.4054021E3,9.716457E3,9.688105E3,5.147419E4,3.5393887E4,2.6452549E4,2.0160858E5,2.269766E5,1.1277334E4,4.1239465E2,9.930074E2,3.1763096E3,6.5401475E3,5.3785225E3,4.309583E3,4.735009E4,4.1241006E3,4.1471187E3,3.124677E4,1.0319376E4,1.6133172E4,5.417367E3,1.9619122E5,2.1928977E5,7.686827E3,9.5889844E2,1.0318436E4,9.493973E1,3.1745493E2,4.2838803E2,5.646193E2,8.8668085E2,2.2896287E3,6.4130537E3,1.2709389E2,1.3459371E3,4.0325854E3,4.3003667E3,9.216466E0,3.589035E4,1.1459739E4,3.870827E3,2.5327371E2,3.5699812E3,5.771376E2,1.1530466E4,1.9716303E4,5.2237983E3,5.095578E3,4.287297E3,1.1845875E4,1.1521623E1,5.4058457E3,1.8434875E5,3.494101E4,4.4846155E2,7.2383657E3,3.079965E2,6.509019E2,3.5589722E3,6.759463E3,8.072371E1,1.4216012E1,2.157373E2,1.0171764E2,3.8832184E2,4.0066208E1,7.0408594E2,1.8259494E2,1.9541831E3,3.354455E2,3.850151E3,2.5629028E3,1.9418348E1,1.0767554E2,5.5067722E1,1.2908694E3,3.927652E3,1.049333E2,2.1081313E3,2.192235E3,6.7308183E0,2.4856474E0,5.842855E2,3.5306066E4,7.1850044E3,4.274735E3,1.4447139E3,2.4261133E3,1.6998152E2,8.329219E1,3.0613381E3,5.0864313E2,1.4214467E2,4.3499295E2,1.026122E4,1.2692462E3,7.334434E3,1.2381869E4,2.6650828E3,2.5587156E3,1.7337239E3,3.3618542E3,2.1769097E3,2.1103872E3,4.3474277E3,7.4984478E3,4.720211E0,6.801411E0,2.6192722E0,5.4032266E3],"tree_param":{"num_deleted":"0","num_feature":"40","num_nodes":"119","size_leaf_vector":"1"}},{"base_weights":[-1.5341675E-4,-1.2838472E0,1.0530565E0,-1.3035829E0,8.219169E-1,8.487656E-2,1.448796E0,-1.357805E0,-9.914259E-1,3.350163E-1,1.5577547E-1,-6.4761646E-2,1.4266727E0,1.096464E0,1.4919555E0,-1.4060751E0,-1.272604E0,1.1569507E-1,-1.0317956E0,-8.499185E-2,8.231662E-1,-1.7224352E-1,2.4621177E-1,8.2744706E-1,1.4426131E0,6.6558087E-1,1.3848201E0,3.0201375E-2,1.4919708E0,-1.451293E0,-1.3830887E0,-1.1457865E0,-1.3406458E0,-1.0946327E0,2.7816212E-1,-1.1090866E0,-7.4549395E-1,-7.281337E-1,3.0815133E-1,9.4286525E-1,4.396801E-2,-5.902806E-4,-3.2306105E-1,4.8198706E-1,3.686467E-2,6.469368E-1,1.4988445E-1,1.3041022E0,1.4841715E0,9.7511023E-1,4.1979662E-1,1.2654091E0,1.4770521E0,1.4619923E0,1.4927398E-1,-1.4919762E-1,-1.4448926E-1,-1.2251574E-1,-1.3999686E-1,-8.0665596E-2,-1.162789E-1,-1.417655E-1,-1.3129339E-1,-3.810784E-2,-1.2840393E-1,8.326299E-3,1.0189853E-1,-9.366104E-2,-1.2004163E-1,-8.1846975E-2,-1.1459397E-2,9.2933916E-2,-1.4186282E-1,-6.679359E-2,6.03634E-2,6.1875034E-2,1.1546322E-1,-6.81011E-2,6.7789815E-2,-5.2967025E-3,1.9001743E-2,-4.511047E-2,-2.0164613E-2,1.208149E-2,6.149556E-2,-3.2871158E-3,2.4774157E-2,9.804871E-2,1.5878364E-2,8.0281824E-2,1.328622E-1,8.604684E-2,1.4863446E-1,-1.1173089E-2,1.03527345E-1,2.029894E-2,7.513851E-2,1.1573614E-1,1.3718161E-1,1.4873487E-1,1.346945E-1,5.1997926E-2,1.464612E-1],"categories":[],"categories_nodes":[],"categories_segments":[],"categories_sizes":[],"default_left":[0,0,0,0,0,0,0,0,0,0,0,0,0,0,0,0,0,0,0,0,0,0,0,0,0,0,0,0,0,0,0,0,0,0,0,0,0,0,0,0,0,0,0,0,0,0,0,0,0,0,0,0,0,0,0,0,0,0,0,0,0,0,0,0,0,0,0,0,0,0,0,0,0,0,0,0,0,0,0,0,0,0,0,0,0,0,0,0,0,0,0,0,0,0,0,0,0,0,0,0,0,0,0],"id":4,"left_children":[1,3,5,7,9,11,13,15,17,19,-1,21,23,25,27,29,31,33,35,37,39,41,43,45,47,49,51,-1,53,55,57,59,61,63,65,67,69,71,73,75,77,79,81,83,85,87,-1,89,91,93,95,97,99,101,-1,-1,-1,-1,-1,-1,-1,-1,-1,-1,-1,-1,-1,-1,-1,-1,-1,-1,-1,-1,-1,-1,-1,-1,-1,-1,-1,-1,-1,-1,-1,-1,-1,-1,-1,-1,-1,-1,-1,-1,-1,-1,-1,-1,-1,-1,-1,-1,-1],"loss_changes":[7.446896E5,1.0317625E4,1.1592697E5,4.1613438E3,8.2551965E2,1.7626936E4,3.264375E3,8.5996875E2,1.6270312E3,2.848028E2,0E0,2.639968E3,8.294141E1,2.911707E3,3.0625E0,1.37E2,6.524531E2,2.5230005E2,7.7633984E2,1.8919875E2,5.987207E1,1.5195516E3,1.00134937E3,2.6975922E1,4.7445312E1,7.1474023E2,1.5279102E2,0E0,2.21875E0,9.578125E0,2.3473438E2,1.5169922E2,1.03390625E2,2.0035812E1,1.6316501E2,4.3446484E2,3.4377246E2,3.2616534E2,1.3438657E2,3.7501373E1,4.025649E1,2.7408414E2,4.8564893E2,4.5814673E2,1.5805132E2,2.9720192E1,0E0,2.3369629E1,7.654297E0,2.7212012E2,3.7665845E2,6.885156E1,8.603516E0,1.1166992E1,0E0,0E0,0E0,0E0,0E0,0E0,0E0,0E0,0E0,0E0,0E0,0E0,0E0,0E0,0E0,0E0,0E0,0E0,0E0,0E0,0E0,0E0,0E0,0E0,0E0,0E0,0E0,0E0,0E0,0E0,0E0,0E0,0E0,0E0,0E0,0E0,0E0,0E0,0E0,0E0,0E0,0E0,0E0,0E0,0E0,0E0,0E0,0E0,0E0],"parents":[2147483647,0,0,1,1,2,2,3,3,4,4,5,5,6,6,7,7,8,8,9,9,11,11,12,12,13,13,14,14,15,15,16,16,17,17,18,18,19,19,20,20,21,21,22,22,23,23,24,24,25,25,26,26,28,28,29,29,30,30,31,31,32,32,33,33,34,34,35,35,36,36,37,37,38,38,39,39,40,40,41,41,42,42,43,43,44,44,45,45,47,47,48,48,49,49,50,50,51,51,52,52,53,53],"right_children":[2,4,6,8,10,12,14,16,18,20,-1,22,24,26,28,30,32,34,36,38,40,42,44,46,48,50,52,-1,54,56,58,60,62,64,66,68,70,72,74,76,78,80,82,84,86,88,-1,90,92,94,96,98,100,102,-1,-1,-1,-1,-1,-1,-1,-1,-1,-1,-1,-1,-1,-1,-1,-1,-1,-1,-1,-1,-1,-1,-1,-1,-1,-1,-1,-1,-1,-1,-1,-1,-1,-1,-1,-1,-1,-1,-1,-1,-1,-1,-1,-1,-1,-1,-1,-1,-1],"split_conditions":[8.75E-1,1E0,1.5787868E0,1.0920258E0,1E1,1E0,1E0,7.5772476E-1,2.4795532E-5,1.1144905E0,1.5577547E-1,1.1300507E0,2.1219254E-4,2.2328033E0,2.4795532E-5,4.4745E-1,8.476162E-2,-3.80661E1,1.450386E0,6.25E-1,1.0336723E0,2.389903E-1,4.3110856E-1,1E1,8E0,1.6983415E-1,3.488655E0,3.0201375E-2,1E1,-2.2567E1,2.9945374E-4,1.2397766E-5,-3.4763E1,6.4266187E-1,1.5068207E0,5.5425167E-2,1.2920256E0,5E-5,7.429619E-4,1.3647254E0,1.5068207E0,9.045868E-1,8.017502E-1,-1.7563E1,-2.55452E1,-2.0898E1,1.4988445E-1,1.4247894E-3,-2.2879E1,-1.7582E1,-2.4698E1,-2.24598E1,-3.657E0,1.4996529E-4,1.4927398E-1,-1.4919762E-1,-1.4448926E-1,-1.2251574E-1,-1.3999686E-1,-8.0665596E-2,-1.162789E-1,-1.417655E-1,-1.3129339E-1,-3.810784E-2,-1.2840393E-1,8.326299E-3,1.0189853E-1,-9.366104E-2,-1.2004163E-1,-8.1846975E-2,-1.1459397E-2,9.2933916E-2,-1.4186282E-1,-6.679359E-2,6.03634E-2,6.1875034E-2,1.1546322E-1,-6.81011E-2,6.7789815E-2,-5.2967025E-3,1.9001743E-2,-4.511047E-2,-2.0164613E-2,1.208149E-2,6.149556E-2,-3.2871158E-3,2.4774157E-2,9.804871E-2,1.5878364E-2,8.0281824E-2,1.328622E-1,8.604684E-2,1.4863446E-1,-1.1173089E-2,1.03527345E-1,2.029894E-2,7.513851E-2,1.1573614E-1,1.3718161E-1,1.4873487E-1,1.346945E-1,5.1997926E-2,1.464612E-1],"split_indices":[39,37,33,33,37,37,37,33,29,33,0,33,29,33,29,33,29,24,33,39,34,30,30,37,37,32,33,0,37,7,29,29,24,34,33,29,29,36,30,33,33,33,33,12,24,15,0,29,18,9,24,24,7,29,0,0,0,0,0,0,0,0,0,0,0,0,0,0,0,0,0,0,0,0,0,0,0,0,0,0,0,0,0,0,0,0,0,0,0,0,0,0,0,0,0,0,0,0,0,0,0,0,0],"split_type":[0,0,0,0,0,0,0,0,0,0,0,0,0,0,0,0,0,0,0,0,0,0,0,0,0,0,0,0,0,0,0,0,0,0,0,0,0,0,0,0,0,0,0,0,0,0,0,0,0,0,0,0,0,0,0,0,0,0,0,0,0,0,0,0,0,0,0,0,0,0,0,0,0,0,0,0,0,0,0,0,0,0,0,0,0,0,0,0,0,0,0,0,0,0,0,0,0,0,0,0,0,0,0],"sum_hessian":[5.508043E5,2.4823972E5,3.025646E5,2.4593514E5,2.3045762E3,8.778909E4,2.147755E5,2.0953522E5,3.6399918E4,1.387758E3,9.16818E2,7.8981914E4,8.807176E3,2.34411E4,1.913344E5,1.3374658E5,7.578865E4,1.2805176E3,3.5119402E4,7.463868E2,6.4137134E2,5.8695434E4,2.0286482E4,2.2958533E2,8.577591E3,9.39929E3,1.404181E4,2.7072332E0,1.9133169E5,4.5054547E4,8.869202E4,2.6470432E4,4.9318215E4,1.5086723E2,1.1296504E3,2.7651605E4,7.467795E3,2.8283905E2,4.635477E2,5.557829E2,8.558843E1,2.745195E4,3.1243484E4,9.5403955E3,1.0746087E4,1.8248611E2,4.7099216E1,1.9871056E3,6.5904854E3,4.158854E3,5.2404365E3,6.1256987E3,7.9161104E3,4.832593E3,1.864991E5,6.093102E3,3.8961445E4,8.571204E3,8.012082E4,1.2660648E3,2.5204367E4,1.3037637E4,3.628058E4,3.2277946E1,1.1858929E2,8.9523914E2,2.3441122E2,9.576887E3,1.8074719E4,6.693289E3,7.7450574E2,8.30761E1,1.9976295E2,1.0742457E2,3.5612314E2,2.2118114E2,3.3460178E2,3.9892292E1,4.5696136E1,2.1535084E4,5.9168643E3,1.52053125E4,1.6038171E4,2.5677424E3,6.972653E3,8.076182E3,2.6699048E3,1.078112E2,7.467491E1,9.42376E1,1.892868E3,2.4261353E1,6.566224E3,2.1809723E2,3.9407566E3,3.1696143E3,2.0708223E3,3.0453076E3,3.080391E3,7.3259062E3,5.9020416E2,1.3955251E1,4.818637E3],"tree_param":{"num_deleted":"0","num_feature":"40","num_nodes":"103","size_leaf_vector":"1"}},{"base_weights":[3.623963E-4,-1.2095549E0,9.895496E-1,-1.2287186E0,7.892263E-1,1.862163E-1,1.4205203E0,-1.2858566E0,-1.1363233E0,3.3136222E-1,1.4746396E-1,1.2772687E-2,1.1243749E0,1.1575173E0,1.4222194E0,-1.2910558E0,-6.104345E-1,-1.1718595E0,-8.829049E-1,-4.1997343E-1,5.0138843E-1,-8.39426E-2,2.5314903E-1,7.416762E-1,1.2888185E0,1.0337954E0,1.4316759E-1,1.3635007E0,1.4245726E-1,-1.3113815E0,-1.2022998E0,-9.484007E-1,-1.1797118E-1,-1.1862557E0,-5.967763E-1,-9.2532134E-1,6.512424E-2,6.8067694E-1,-1.2235975E0,4.820569E-2,7.3895156E-1,1.24644525E-1,-2.0129766E-1,-4.715055E-2,3.9489773E-1,1.1457698E0,3.4653044E-1,1.3678567E0,1.0256609E0,6.000474E-1,1.1655719E0,3.3020967E-1,1.3662578E0,-1.3536291E-1,-1.2753636E-1,-1.3583992E-1,-1.12588994E-1,3.238022E-2,-1.0024204E-1,-1.4573946E-2,1.9719248E-1,-1.24579966E-1,-1.1011628E-1,-7.321229E-2,-9.868629E-3,-1.1803271E-1,-7.648804E-2,-2.4511708E-2,3.8570177E-2,-2.609024E-2,1.1260297E-1,-6.256005E-2,-1.6519187E-1,-1.1807968E-1,1.9270713E-2,5.224658E-2,1.1573382E-1,6.4094104E-3,5.8984425E-2,-2.9857969E-2,-8.03046E-3,9.4900624E-4,-3.4057867E-2,5.1486768E-2,8.665652E-3,-1.1515782E-1,1.1750757E-1,-1.4996634E-1,3.7922006E-2,-1.7591672E-1,1.3782845E-1,6.3022874E-2,1.2379881E-1,6.393357E-2,-1.6543125E-1,7.789198E-2,1.1951655E-1,1.3080971E-1,-2.4413157E-2,1.3238738E-1,1.4146028E-1],"categories":[],"categories_nodes":[],"categories_segments":[],"categories_sizes":[],"default_left":[0,0,0,0,0,0,0,0,0,0,0,0,0,0,0,0,0,0,0,0,0,0,0,0,0,0,0,0,0,0,0,0,0,0,0,0,0,0,0,0,0,0,0,0,0,0,0,0,0,0,0,0,0,0,0,0,0,0,0,0,0,0,0,0,0,0,0,0,0,0,0,0,0,0,0,0,0,0,0,0,0,0,0,0,0,0,0,0,0,0,0,0,0,0,0,0,0,0,0,0,0],"id":5,"left_children":[1,3,5,7,9,11,13,15,17,19,-1,21,23,25,27,29,31,33,35,37,39,41,43,45,47,49,-1,51,-1,53,55,57,59,61,63,65,67,69,71,73,75,77,79,81,83,85,87,89,91,93,95,97,99,-1,-1,-1,-1,-1,-1,-1,-1,-1,-1,-1,-1,-1,-1,-1,-1,-1,-1,-1,-1,-1,-1,-1,-1,-1,-1,-1,-1,-1,-1,-1,-1,-1,-1,-1,-1,-1,-1,-1,-1,-1,-1,-1,-1,-1,-1,-1,-1],"loss_changes":[6.3208944E5,9.100594E3,1.0059966E5,1.24075E3,7.0770703E2,1.6508934E4,8.2875E1,5.0975E2,8.087578E2,1.7320363E2,0E0,1.9907114E3,9.95291E2,3.987683E1,2.403125E1,2.5870312E2,1.8504425E2,6.521797E2,4.44917E2,2.2235214E2,1.18900635E2,1.4947292E3,1.045803E3,7.5969165E2,2.28875E2,4.752649E1,0E0,2.0240234E1,0E0,1.7689062E2,3.1926953E2,4.5653748E1,2.6628191E1,3.8840625E2,1.298971E2,4.3233105E2,4.7306843E1,4.4882614E1,3.613452E1,6.789326E1,6.5037415E1,6.19255E2,4.599254E2,1.3095056E2,6.17146E2,1.5977148E2,1.4590558E2,2.7995312E2,2.1425781E2,1.865335E1,6.461548E0,1.1915763E1,1.2970703E1,0E0,0E0,0E0,0E0,0E0,0E0,0E0,0E0,0E0,0E0,0E0,0E0,0E0,0E0,0E0,0E0,0E0,0E0,0E0,0E0,0E0,0E0,0E0,0E0,0E0,0E0,0E0,0E0,0E0,0E0,0E0,0E0,0E0,0E0,0E0,0E0,0E0,0E0,0E0,0E0,0E0,0E0,0E0,0E0,0E0,0E0,0E0,0E0],"parents":[2147483647,0,0,1,1,2,2,3,3,4,4,5,5,6,6,7,7,8,8,9,9,11,11,12,12,13,13,14,14,15,15,16,16,17,17,18,18,19,19,20,20,21,21,22,22,23,23,24,24,25,25,27,27,29,29,30,30,31,31,32,32,33,33,34,34,35,35,36,36,37,37,38,38,39,39,40,40,41,41,42,42,43,43,44,44,45,45,46,46,47,47,48,48,49,49,50,50,51,51,52,52],"right_children":[2,4,6,8,10,12,14,16,18,20,-1,22,24,26,28,30,32,34,36,38,40,42,44,46,48,50,-1,52,-1,54,56,58,60,62,64,66,68,70,72,74,76,78,80,82,84,86,88,90,92,94,96,98,100,-1,-1,-1,-1,-1,-1,-1,-1,-1,-1,-1,-1,-1,-1,-1,-1,-1,-1,-1,-1,-1,-1,-1,-1,-1,-1,-1,-1,-1,-1,-1,-1,-1,-1,-1,-1,-1,-1,-1,-1,-1,-1,-1,-1,-1,-1,-1,-1],"split_conditions":[8.75E-1,1E0,1E0,6.404129E-1,2E0,-2.38934E1,-1.7872E1,-7.985E0,9.9998856E-1,5E-1,1.4746396E-1,7.51799E-1,-2.22173E1,1E1,1E1,9.98436E-1,9.5317507E-1,8.2831097E-1,2.8296403E-4,2.4795532E-5,-3.50909E1,2.1866697E-1,-1.6802E1,3.374964E-4,-3.035E0,5.62191E-4,1.4316759E-1,1.4996529E-4,1.4245726E-1,-3.37171E1,-2.2746E1,-4.868E-1,-2.09446E1,9.7683716E-1,1.2920256E0,-3.71107E1,8.6105794E-1,4E0,-1.4985E1,-3.97817E1,8E0,-2.90693E1,-2.99241E1,3.3448544E-1,1.5000001E-2,-1.1569E1,-1.1314E1,-1.1421E1,1.2920256E0,1.0678424E0,-1.994E1,-1.757E1,-2.59863E1,-1.3536291E-1,-1.2753636E-1,-1.3583992E-1,-1.12588994E-1,3.238022E-2,-1.0024204E-1,-1.4573946E-2,1.9719248E-1,-1.24579966E-1,-1.1011628E-1,-7.321229E-2,-9.868629E-3,-1.1803271E-1,-7.648804E-2,-2.4511708E-2,3.8570177E-2,-2.609024E-2,1.1260297E-1,-6.256005E-2,-1.6519187E-1,-1.1807968E-1,1.9270713E-2,5.224658E-2,1.1573382E-1,6.4094104E-3,5.8984425E-2,-2.9857969E-2,-8.03046E-3,9.4900624E-4,-3.4057867E-2,5.1486768E-2,8.665652E-3,-1.1515782E-1,1.1750757E-1,-1.4996634E-1,3.7922006E-2,-1.7591672E-1,1.3782845E-1,6.3022874E-2,1.2379881E-1,6.393357E-2,-1.6543125E-1,7.789198E-2,1.1951655E-1,1.3080971E-1,-2.4413157E-2,1.3238738E-1,1.4146028E-1],"split_indices":[39,37,37,34,27,24,13,22,31,39,0,34,24,37,37,31,29,29,30,29,24,30,11,35,5,29,0,29,0,24,13,25,24,31,29,24,34,37,4,24,37,24,24,30,35,12,12,22,29,34,7,13,24,0,0,0,0,0,0,0,0,0,0,0,0,0,0,0,0,0,0,0,0,0,0,0,0,0,0,0,0,0,0,0,0,0,0,0,0,0,0,0,0,0,0,0,0,0,0,0,0],"split_type":[0,0,0,0,0,0,0,0,0,0,0,0,0,0,0,0,0,0,0,0,0,0,0,0,0,0,0,0,0,0,0,0,0,0,0,0,0,0,0,0,0,0,0,0,0,0,0,0,0,0,0,0,0,0,0,0,0,0,0,0,0,0,0,0,0,0,0,0,0,0,0,0,0,0,0,0,0,0,0,0,0,0,0,0,0,0,0,0,0,0,0,0,0,0,0,0,0,0,0,0,0],"sum_hessian":[5.281323E5,2.3756102E5,2.905713E5,2.3530536E5,2.2556492E3,1.0145666E5,1.8911466E5,1.453851E5,8.992027E4,1.3531876E3,9.0246155E2,8.56272E4,1.5829454E4,1.2182672E3,1.8789638E5,1.4427361E5,1.1114769E3,7.885852E4,1.1061751E4,2.4944316E2,1.1037445E3,6.106028E4,2.4566918E4,4.7591978E3,1.1070257E4,8.4273114E2,3.7553607E2,7.2622744E3,1.8063411E5,1.17379266E5,2.689435E4,6.5858167E2,4.5289526E2,7.693162E4,1.9269048E3,1.0588048E4,4.737036E2,1.0533223E2,1.4411093E2,3.8001642E2,7.237281E2,2.1984654E4,3.907563E4,7.8779253E3,1.6688992E4,2.3520188E3,2.407179E3,8.510092E3,2.5601643E3,1.9766443E2,6.450667E2,1.9647377E1,7.242627E3,5.4001293E4,6.3377973E4,8.832821E3,1.8061527E4,2.6621925E1,6.319597E2,4.4787463E2,5.0206065E0,4.525243E4,3.1679193E4,1.514813E3,4.1209177E2,4.086535E3,6.5015127E3,2.4085233E2,2.3285129E2,3.3955845E1,7.137638E1,6.1169804E1,8.2941124E1,3.9225677E1,3.4079074E2,4.7842526E2,2.4530281E2,1.9453697E4,2.5309568E3,2.1659377E4,1.7416252E4,6.6040996E3,1.2738257E3,1.2012833E4,4.676159E3,2.914294E1,2.322876E3,4.1100365E1,2.3660786E3,2.7727303E1,8.482365E3,8.958071E2,1.6643572E3,1.9498274E2,2.6816995E0,4.7804405E1,5.972623E2,6.7970285E0,1.28503475E1,3.8743667E3,3.36826E3],"tree_param":{"num_deleted":"0","num_feature":"40","num_nodes":"101","size_leaf_vector":"1"}},{"base_weights":[-2.608784E-4,-1.1437E0,9.3081397E-1,-1.3232497E0,7.720005E-1,9.098674E-2,1.333751E0,-1.334831E0,5.403145E-1,3.8737065E-1,1.2518109E0,-6.678116E-1,1.1185979E0,1.0456183E0,1.3673227E0,-1.352586E0,-1.1291837E0,-2.147248E-1,1.1407025E0,-1.8962999E-1,5.404593E-1,9.789802E-1,1.4135619E0,-8.544739E-1,1.2546414E0,3.2320935E-1,1.2665461E0,6.635059E-1,1.2533E0,1.8779157E-2,1.3673365E0,-1.3600328E0,-1.1408722E0,2.052784E-1,-1.1849668E0,8.5534E-1,-5.2692056E-1,7.924957E-1,1.3684191E-1,-5.934171E-1,9.2936575E-2,5.678189E-1,-1.1611935E0,6.249052E-1,1.1341162E0,1.4187963E0,-1.1683947E0,-1.1303649E0,-6.174554E-1,1.0647683E0,1.3702057E-1,1.7612135E-1,1.2782304E0,1.1108013E0,1.381985E0,9.485929E-2,1.2477013E0,1.1277218E0,1.3529257E0,1.3375942E0,1.3680519E-1,-1.3776813E-1,-1.3332938E-1,-1.1925179E-1,-7.4298135E-3,-1.3811533E-1,6.483497E-2,-1.3326554E-1,-9.579822E-2,1.2368695E-1,-5.8856267E-2,-7.1036264E-2,1.4677705E-1,9.3181245E-2,-1.277603E-1,-1.1884612E-1,-4.0756762E-2,-6.29275E-3,6.0058504E-2,4.2431887E-2,8.885776E-2,1.2144448E-1,-1.4340521E-1,-7.346176E-2,6.8237975E-2,1.1598712E-1,-4.132074E-2,1.2753984E-1,1.5135776E-1,-1.7044663E-1,9.333144E-2,6.63997E-2,-1.1838329E-1,-7.851833E-2,-3.257312E-2,1.157347E-1,2.9801587E-2,-7.480826E-2,2.249921E-2,1.0974225E-1,1.3690579E-1,1.08494654E-1,1.3575438E-1,1.3157292E-1,1.4340429E-1,-5.1220924E-2,5.7893492E-2,1.0104213E-1,1.3837586E-1,1.0065105E-1,1.3800138E-1,-5.271229E-2,1.3538349E-1,1.339204E-1,3.904101E-2],"categories":[],"categories_nodes":[],"categories_segments":[],"categories_sizes":[],"default_left":[0,0,0,0,0,0,0,0,0,0,0,0,0,0,0,0,0,0,0,0,0,0,0,0,0,0,0,0,0,0,0,0,0,0,0,0,0,0,0,0,0,0,0,0,0,0,0,0,0,0,0,0,0,0,0,0,0,0,0,0,0,0,0,0,0,0,0,0,0,0,0,0,0,0,0,0,0,0,0,0,0,0,0,0,0,0,0,0,0,0,0,0,0,0,0,0,0,0,0,0,0,0,0,0,0,0,0,0,0,0,0,0,0,0,0],"id":6,"left_children":[1,3,5,7,9,11,13,15,17,19,21,23,25,27,29,31,33,35,37,39,41,43,45,47,49,51,53,55,57,-1,59,61,63,65,67,69,71,73,-1,75,77,79,81,83,85,87,89,91,93,95,-1,97,99,101,103,105,107,109,111,113,-1,-1,-1,-1,-1,-1,-1,-1,-1,-1,-1,-1,-1,-1,-1,-1,-1,-1,-1,-1,-1,-1,-1,-1,-1,-1,-1,-1,-1,-1,-1,-1,-1,-1,-1,-1,-1,-1,-1,-1,-1,-1,-1,-1,-1,-1,-1,-1,-1,-1,-1,-1,-1,-1,-1],"loss_changes":[5.3797456E5,7.801E4,9.425131E4,4.4760938E3,3.5863223E3,7.041645E4,1.8192188E3,7.509375E2,5.811299E2,9.531349E2,3.8022754E2,1.8642525E4,4.5135E3,1.5582266E3,2.53125E0,2.9753125E2,1.2199004E3,1.9035065E2,5.552771E1,2.5826373E2,3.9765186E2,1.762622E2,7.499707E1,3.0956406E3,9.943164E1,8.4504205E2,5.799492E2,2.298698E3,1.5769922E2,0E0,1.75E0,8.465625E1,3.5530273E2,4.6359384E2,5.2594336E2,7.166589E1,1.6229007E2,8.329039E1,0E0,1.0256467E2,1.054505E2,3.8593628E2,8.941882E1,7.737109E1,8.970703E1,7.1680664E1,1.4578154E1,2.0999648E3,1.2460947E3,1.2346277E2,0E0,2.3573048E2,1.168335E1,8.6390625E1,6.2164062E1,1.0311025E3,1.0879346E2,1.7096826E2,1.28359375E1,5.5820312E0,0E0,0E0,0E0,0E0,0E0,0E0,0E0,0E0,0E0,0E0,0E0,0E0,0E0,0E0,0E0,0E0,0E0,0E0,0E0,0E0,0E0,0E0,0E0,0E0,0E0,0E0,0E0,0E0,0E0,0E0,0E0,0E0,0E0,0E0,0E0,0E0,0E0,0E0,0E0,0E0,0E0,0E0,0E0,0E0,0E0,0E0,0E0,0E0,0E0,0E0,0E0,0E0,0E0,0E0,0E0],"parents":[2147483647,0,0,1,1,2,2,3,3,4,4,5,5,6,6,7,7,8,8,9,9,10,10,11,11,12,12,13,13,14,14,15,15,16,16,17,17,18,18,19,19,20,20,21,21,22,22,23,23,24,24,25,25,26,26,27,27,28,28,30,30,31,31,32,32,33,33,34,34,35,35,36,36,37,37,39,39,40,40,41,41,42,42,43,43,44,44,45,45,46,46,47,47,48,48,49,49,51,51,52,52,53,53,54,54,55,55,56,56,57,57,58,58,59,59],"right_children":[2,4,6,8,10,12,14,16,18,20,22,24,26,28,30,32,34,36,38,40,42,44,46,48,50,52,54,56,58,-1,60,62,64,66,68,70,72,74,-1,76,78,80,82,84,86,88,90,92,94,96,-1,98,100,102,104,106,108,110,112,114,-1,-1,-1,-1,-1,-1,-1,-1,-1,-1,-1,-1,-1,-1,-1,-1,-1,-1,-1,-1,-1,-1,-1,-1,-1,-1,-1,-1,-1,-1,-1,-1,-1,-1,-1,-1,-1,-1,-1,-1,-1,-1,-1,-1,-1,-1,-1,-1,-1,-1,-1,-1,-1,-1,-1],"split_conditions":[8.75E-1,6.875E-1,1.6788712E0,2E0,8.222656E-1,6.015625E-1,1E0,1.2242131E0,1.3303223E0,6.2478757E-1,8.7890625E-1,1E0,6.875E-1,2.2328033E0,-2.2455E1,5.957031E-1,2.4795532E-5,1.2397766E-5,2E0,7.34375E-1,1.3729728E0,7.6497996E-1,4.6062E0,2.5195312E-1,1E1,2E0,8.222656E-1,5.8984375E-1,3.488655E0,1.8779157E-2,1E1,2.8125E-1,5.125874E-1,3.8085938E-1,9.800377E-1,1E0,2E0,6.015625E-1,1.3684191E-1,3.4581232E-1,1.8387496E-1,1.1642866E0,2.4795532E-5,-1.971E1,1.3022826E0,9.238281E-1,2.2328033E0,1.3389951E-2,1.0151005E0,9.998379E-1,1.3702057E-1,2.9945374E-4,1E1,4E0,9.003906E-1,8.063E-1,7.753906E-1,6.875E-1,3.1E-3,-3.382E0,1.3680519E-1,-1.3776813E-1,-1.3332938E-1,-1.1925179E-1,-7.4298135E-3,-1.3811533E-1,6.483497E-2,-1.3326554E-1,-9.579822E-2,1.2368695E-1,-5.8856267E-2,-7.1036264E-2,1.4677705E-1,9.3181245E-2,-1.277603E-1,-1.1884612E-1,-4.0756762E-2,-6.29275E-3,6.0058504E-2,4.2431887E-2,8.885776E-2,1.2144448E-1,-1.4340521E-1,-7.346176E-2,6.8237975E-2,1.1598712E-1,-4.132074E-2,1.2753984E-1,1.5135776E-1,-1.7044663E-1,9.333144E-2,6.63997E-2,-1.1838329E-1,-7.851833E-2,-3.257312E-2,1.157347E-1,2.9801587E-2,-7.480826E-2,2.249921E-2,1.0974225E-1,1.3690579E-1,1.08494654E-1,1.3575438E-1,1.3157292E-1,1.4340429E-1,-5.1220924E-2,5.7893492E-2,1.0104213E-1,1.3837586E-1,1.0065105E-1,1.3800138E-1,-5.271229E-2,1.3538349E-1,1.339204E-1,3.904101E-2],"split_indices":[39,38,33,37,38,38,37,33,33,33,38,37,38,33,18,38,29,29,27,38,34,33,23,38,37,37,38,38,33,0,37,38,29,38,31,27,27,38,0,33,29,33,29,4,34,38,33,34,33,31,0,29,37,37,38,31,38,38,0,8,0,0,0,0,0,0,0,0,0,0,0,0,0,0,0,0,0,0,0,0,0,0,0,0,0,0,0,0,0,0,0,0,0,0,0,0,0,0,0,0,0,0,0,0,0,0,0,0,0,0,0,0,0,0,0],"split_type":[0,0,0,0,0,0,0,0,0,0,0,0,0,0,0,0,0,0,0,0,0,0,0,0,0,0,0,0,0,0,0,0,0,0,0,0,0,0,0,0,0,0,0,0,0,0,0,0,0,0,0,0,0,0,0,0,0,0,0,0,0,0,0,0,0,0,0,0,0,0,0,0,0,0,0,0,0,0,0,0,0,0,0,0,0,0,0,0,0,0,0,0,0,0,0,0,0,0,0,0,0,0,0,0,0,0,0,0,0,0,0,0,0,0,0],"sum_hessian":[5.0531525E5,2.2679342E5,2.7852184E5,2.0735894E5,1.9434486E4,9.030453E4,1.882173E5,2.0607852E5,1.2804114E3,1.0788179E4,8.646308E3,5.194683E4,3.8357703E4,1.9644928E4,1.6857238E5,1.8969517E5,1.6383347E4,5.6744415E2,7.129673E2,2.2620674E3,8.526111E3,3.2207747E3,5.4255327E3,4.7349902E4,4.596927E3,6.016331E3,3.2341373E4,6.9189624E3,1.2725965E4,2.1368325E0,1.6857023E5,1.8324436E5,6.450818E3,6.572685E2,1.5726078E4,1.2776933E2,4.396748E2,2.836744E2,4.2929288E2,9.308229E2,1.3312444E3,8.391852E3,1.3425984E2,9.8277155E2,2.2380032E3,5.4150054E3,1.0527232E1,2.1878924E4,2.5470979E4,1.7431428E3,2.8537837E3,5.214415E3,8.0191595E2,1.3771762E4,1.8569611E4,3.5067292E3,3.4122332E3,5.635169E3,7.090796E3,4.0028882E3,1.6456734E5,1.10355945E5,7.288841E4,6.1527705E3,2.9804733E2,1.4302945E2,5.14239E2,9.524224E3,6.201855E3,1.0117797E2,2.6591364E1,4.032351E2,3.64397E1,2.6630228E2,1.7372152E1,2.2024812E2,7.1057477E2,1.0191953E3,3.1204904E2,5.799578E3,2.5922732E3,1.3476461E1,1.2078338E2,3.9384068E1,9.4338745E2,2.201608E3,3.6395203E1,2.1606052E3,3.2544001E3,8.538398E0,1.988834E0,6.327481E2,2.1246176E4,1.6171453E4,9.299524E3,1.5548938E3,1.882491E2,2.6116495E2,4.95325E3,2.7251334E2,5.294026E2,1.2470445E4,1.3013164E3,8.182169E3,1.0387442E4,1.5557009E3,1.9510283E3,1.2466095E3,2.1656235E3,3.8097827E3,1.8253862E3,3.1477356E0,7.087648E3,3.9956836E3,7.204642E0],"tree_param":{"num_deleted":"0","num_feature":"40","num_nodes":"115","size_leaf_vector":"1"}},{"base_weights":[1.6836016E-3,-1.0938561E0,8.880024E-1,-1.1114794E0,6.791253E-1,8.724363E-2,1.284669E0,-1.1730232E0,-8.0389553E-1,2.704192E-1,1.3671051E-1,-4.0019892E-2,1.2461534E0,9.876407E-1,1.3202071E0,-1.2135469E0,-1.0615371E0,-8.703695E-1,-2.6484725E-1,-4.0848133E-1,4.5620593E-1,-1.4081064E-1,2.2021133E-1,5.8854985E-1,1.262593E0,6.595202E-1,1.2320954E0,1.287623E0,1.3209903E-1,-1.2468741E0,-1.1670023E0,-9.236164E-1,-1.1462266E0,-9.375928E-1,-5.0813013E-1,4.2383873E-1,-4.1020977E-1,6.452061E-1,-7.053275E-1,2.413459E-1,9.0846825E-1,-3.3992402E-2,-2.9304025E-1,4.3148E-1,2.7904155E-2,3.9618126E-1,1.3114405E-1,1.1019683E0,1.3088416E0,8.175625E-1,2.1568471E-1,1.1218106E0,1.3010168E0,-1.0827676E-1,1.2886989E0,-1.2714069E-1,-1.2230053E-1,-9.63529E-2,-1.195228E-1,-4.8437234E-2,-9.4423346E-2,-1.18001856E-1,-1.0489774E-1,-7.821883E-2,-1.0041999E-1,-4.241964E-2,-1.2903826E-1,-1.2142088E-1,5.639733E-2,-7.974273E-2,-1.9974317E-2,-1.3288862E-1,9.8601066E-2,8.426217E-2,-9.362976E-2,-2.791953E-3,6.659781E-2,1.103787E-1,-8.897336E-2,8.77355E-2,-4.3540657E-3,-4.4429038E-2,-1.9881837E-2,7.570319E-3,5.467073E-2,1.0149597E-2,-1.2453279E-2,7.049657E-2,-2.425359E-3,-1.4678477E-1,1.10431336E-1,4.3487724E-2,1.3101152E-1,6.4525336E-2,1.03270866E-1,-1.8576346E-2,7.376009E-2,1.0371349E-1,1.20173395E-1,-6.9219686E-2,1.302221E-1,1.1752553E-1,1.3035952E-1],"categories":[],"categories_nodes":[],"categories_segments":[],"categories_sizes":[],"default_left":[0,0,0,0,0,0,0,0,0,0,0,0,0,0,0,0,0,0,0,0,0,0,0,0,0,0,0,0,0,0,0,0,0,0,0,0,0,0,0,0,0,0,0,0,0,0,0,0,0,0,0,0,0,0,0,0,0,0,0,0,0,0,0,0,0,0,0,0,0,0,0,0,0,0,0,0,0,0,0,0,0,0,0,0,0,0,0,0,0,0,0,0,0,0,0,0,0,0,0,0,0,0,0],"id":7,"left_children":[1,3,5,7,9,11,13,15,17,19,-1,21,23,25,27,29,31,33,35,37,39,41,43,45,47,49,51,53,-1,55,57,59,61,63,65,67,69,71,73,75,77,79,81,83,85,87,-1,89,91,93,95,97,99,-1,101,-1,-1,-1,-1,-1,-1,-1,-1,-1,-1,-1,-1,-1,-1,-1,-1,-1,-1,-1,-1,-1,-1,-1,-1,-1,-1,-1,-1,-1,-1,-1,-1,-1,-1,-1,-1,-1,-1,-1,-1,-1,-1,-1,-1,-1,-1,-1,-1],"loss_changes":[4.646166E5,6.6870625E3,8.401539E4,4.01E3,5.9200543E2,1.2923194E4,1.8658438E3,7.9634375E2,1.2657441E3,1.670393E2,0E0,2.070888E3,9.298633E1,1.515625E3,2.34375E0,1.9939062E2,5.4879297E2,7.653906E2,3.885942E2,8.952219E1,1.0075334E2,9.254232E2,8.9554944E2,2.9146637E1,6.1387695E1,5.661543E2,8.088281E1,1.095166E1,0E0,4.2625E1,3.0923438E2,1.6177441E2,9.459375E1,2.7379688E2,3.2282886E2,1.5602254E2,2.6097583E2,4.377047E1,8.039128E1,8.071883E1,1.1839621E2,2.9107123E2,3.343462E2,4.305498E2,1.2947238E2,2.2077599E1,0E0,1.3053955E1,6.7333984E0,2.2003442E2,4.4461285E2,2.6998535E1,1.6885742E1,0E0,4.798828E0,0E0,0E0,0E0,0E0,0E0,0E0,0E0,0E0,0E0,0E0,0E0,0E0,0E0,0E0,0E0,0E0,0E0,0E0,0E0,0E0,0E0,0E0,0E0,0E0,0E0,0E0,0E0,0E0,0E0,0E0,0E0,0E0,0E0,0E0,0E0,0E0,0E0,0E0,0E0,0E0,0E0,0E0,0E0,0E0,0E0,0E0,0E0,0E0],"parents":[2147483647,0,0,1,1,2,2,3,3,4,4,5,5,6,6,7,7,8,8,9,9,11,11,12,12,13,13,14,14,15,15,16,16,17,17,18,18,19,19,20,20,21,21,22,22,23,23,24,24,25,25,26,26,27,27,29,29,30,30,31,31,32,32,33,33,34,34,35,35,36,36,37,37,38,38,39,39,40,40,41,41,42,42,43,43,44,44,45,45,47,47,48,48,49,49,50,50,51,51,52,52,54,54],"right_children":[2,4,6,8,10,12,14,16,18,20,-1,22,24,26,28,30,32,34,36,38,40,42,44,46,48,50,52,54,-1,56,58,60,62,64,66,68,70,72,74,76,78,80,82,84,86,88,-1,90,92,94,96,98,100,-1,102,-1,-1,-1,-1,-1,-1,-1,-1,-1,-1,-1,-1,-1,-1,-1,-1,-1,-1,-1,-1,-1,-1,-1,-1,-1,-1,-1,-1,-1,-1,-1,-1,-1,-1,-1,-1,-1,-1,-1,-1,-1,-1,-1,-1,-1,-1,-1,-1],"split_conditions":[8.75E-1,1E0,1.6788712E0,1.071125E0,2E0,1E0,1E0,8.21025E-1,9.9998856E-1,7.541332E-1,1.3671051E-1,1.1300507E0,2.1219254E-4,2.4412994E0,1E1,6.102123E-1,9.341216E-2,1.5068207E0,5E-5,5E-5,8E0,3.0934307E-1,4.4041058E-1,1E1,8E0,-4.473E0,3.488655E0,6.613094E-5,1.3209903E-1,4.425249E-1,1.0375977E-3,1.2397766E-5,7.5E-1,5.5425167E-2,1.3729728E0,-3.82935E1,-3.58652E1,2E0,9.12426E-1,1.3145638E0,1.0184417E0,-4.57196E1,7.718878E-1,-1.7685E1,-5.426E0,-2.0328E1,1.3114405E-1,6.8087725E-4,-1.9033E1,-2.61204E1,-2.32175E1,-2.22173E1,3.1E-3,-1.0827676E-1,-2.97871E1,-1.2714069E-1,-1.2230053E-1,-9.63529E-2,-1.195228E-1,-4.8437234E-2,-9.4423346E-2,-1.18001856E-1,-1.0489774E-1,-7.821883E-2,-1.0041999E-1,-4.241964E-2,-1.2903826E-1,-1.2142088E-1,5.639733E-2,-7.974273E-2,-1.9974317E-2,-1.3288862E-1,9.8601066E-2,8.426217E-2,-9.362976E-2,-2.791953E-3,6.659781E-2,1.103787E-1,-8.897336E-2,8.77355E-2,-4.3540657E-3,-4.4429038E-2,-1.9881837E-2,7.570319E-3,5.467073E-2,1.0149597E-2,-1.2453279E-2,7.049657E-2,-2.425359E-3,-1.4678477E-1,1.10431336E-1,4.3487724E-2,1.3101152E-1,6.4525336E-2,1.03270866E-1,-1.8576346E-2,7.376009E-2,1.0371349E-1,1.20173395E-1,-6.9219686E-2,1.302221E-1,1.1752553E-1,1.3035952E-1],"split_indices":[39,37,33,33,27,37,37,33,31,33,0,33,29,33,37,33,29,33,36,36,37,30,30,37,37,7,33,30,0,33,29,29,39,29,34,24,24,37,31,33,34,24,33,12,8,13,0,36,5,24,24,24,0,0,24,0,0,0,0,0,0,0,0,0,0,0,0,0,0,0,0,0,0,0,0,0,0,0,0,0,0,0,0,0,0,0,0,0,0,0,0,0,0,0,0,0,0,0,0,0,0,0,0],"split_type":[0,0,0,0,0,0,0,0,0,0,0,0,0,0,0,0,0,0,0,0,0,0,0,0,0,0,0,0,0,0,0,0,0,0,0,0,0,0,0,0,0,0,0,0,0,0,0,0,0,0,0,0,0,0,0,0,0,0,0,0,0,0,0,0,0,0,0,0,0,0,0,0,0,0,0,0,0,0,0,0,0,0,0,0,0,0,0,0,0,0,0,0,0,0,0,0,0,0,0,0,0,0,0],"sum_hessian":[4.7849216E5,2.1398925E5,2.645029E5,2.118835E5,2.1057363E3,8.762129E4,1.7688162E5,1.7655431E5,3.532919E4,1.3218574E3,7.8387897E2,7.895226E4,8.66903E3,1.890471E4,1.5797692E5,1.2948016E5,4.707416E4,3.1450223E4,3.8789695E3,2.837568E2,1.0381006E3,5.6910562E4,2.2041701E4,2.123316E2,8.456699E3,8.072738E3,1.0831974E4,3.746401E3,1.5423052E5,7.54383E4,5.404186E4,1.791335E4,2.9160812E4,2.6526016E4,4.924207E3,6.75714E2,3.2032554E3,6.2111565E1,2.2164523E2,7.047993E2,3.333013E2,3.3444242E4,2.346632E4,1.0502457E4,1.1539243E4,1.6892657E2,4.3405037E1,1.8961292E3,6.56057E3,5.952361E3,2.120377E3,4.1725454E3,6.659428E3,1.2434307E0,3.7451575E3,3.717605E4,3.8262242E4,6.5876865E3,4.745417E4,8.0421106E2,1.7109139E4,2.1632783E4,7.5280293E3,7.962055E3,1.856396E4,4.4484424E3,4.7576462E2,5.2647484E1,6.230665E2,1.1270022E3,2.0762534E3,8.717375E0,5.339419E1,2.8433989E1,1.9321124E2,4.318752E2,2.729241E2,3.0099384E2,3.230744E1,3.4582245E2,3.3098418E4,9.005877E3,1.4460442E4,2.5697454E3,7.932712E3,7.7824517E3,3.7567915E3,9.700524E1,7.192133E1,1.158966E0,1.8949702E3,1.0044561E1,6.5505254E3,3.3074465E3,2.6449143E3,1.1988716E3,9.2150543E2,2.032826E3,2.1397192E3,3.6741579E0,6.655754E3,4.4396738E2,3.3011902E3],"tree_param":{"num_deleted":"0","num_feature":"40","num_nodes":"103","size_leaf_vector":"1"}},{"base_weights":[1.4641641E-3,-1.0406753E0,8.404936E-1,-1.2315207E0,7.942382E-1,7.857257E-2,1.2417731E0,-1.2432808E0,4.9346825E-1,3.4570077E-1,1.147081E0,-5.648667E-1,1.1433092E0,9.2467916E-1,1.2803783E0,-1.2625726E0,-1.0289729E0,7.884227E-2,1.2918149E-1,-3.030987E-1,4.83306E-1,9.1713774E-1,1.3770531E0,-7.209091E-1,1.1514877E0,7.624992E-1,1.2410427E0,5.9490734E-1,1.1787905E0,1.2435108E0,1.2812702E-1,-1.2714585E0,-1.016335E0,-1.2364542E0,-7.450146E-1,-1.0767977E0,2.8654033E-1,-1.2968905E0,-2.2750698E-1,2.510146E-1,6.412706E-1,9.412356E-1,-5.257248E-1,1.2492454E0,1.4640864E0,-9.241385E-1,-2.888082E-1,9.4007444E-1,1.2832507E-1,4.049723E-1,9.19976E-1,1.1328756E0,1.3359435E0,6.402593E-2,1.1529113E0,1.0737826E0,1.2661594E0,-1.2083272E-1,1.2452314E0,-1.2811486E-1,-1.2054149E-1,-2.068485E-3,-1.0884011E-1,-1.265391E-1,-1.1339716E-2,1.8090993E-2,-8.4753774E-2,-1.4428408E-1,2.5041054E-3,4.614906E-2,-1.0602715E-1,1.6897292E-1,-1.3606577E-1,-5.439892E-2,-3.1577428E-3,4.217947E-2,-1.9042587E-2,6.6970445E-2,-1.2029729E-1,7.320895E-2,1.1241843E-1,-1.4136691E-1,4.2411786E-2,-1.6704945E-1,1.2590815E-1,1.467744E-1,-3.9356425E-2,6.7248784E-2,-9.537815E-2,-4.5715895E-2,-2.5084605E-3,1.03114426E-1,2.5870329E-2,3.0372918E-2,1.1511395E-1,7.2371E-2,1.0066449E-1,1.0593623E-1,1.1884584E-1,1.3011989E-1,1.3918026E-1,6.385981E-2,-3.7125804E-2,9.173902E-2,1.2947087E-1,9.8973006E-2,1.299017E-1,1.2774804E-1,1.142916E-1,1.1731567E-1,1.2704003E-1],"categories":[],"categories_nodes":[],"categories_segments":[],"categories_sizes":[],"default_left":[0,0,0,0,0,0,0,0,0,0,0,0,0,0,0,0,0,0,0,0,0,0,0,0,0,0,0,0,0,0,0,0,0,0,0,0,0,0,0,0,0,0,0,0,0,0,0,0,0,0,0,0,0,0,0,0,0,0,0,0,0,0,0,0,0,0,0,0,0,0,0,0,0,0,0,0,0,0,0,0,0,0,0,0,0,0,0,0,0,0,0,0,0,0,0,0,0,0,0,0,0,0,0,0,0,0,0,0,0,0,0],"id":8,"left_children":[1,3,5,7,9,11,13,15,17,19,21,23,25,27,29,31,33,35,-1,37,39,41,43,45,47,49,51,53,55,57,-1,59,61,63,65,67,69,71,73,75,77,79,81,83,85,87,89,91,-1,93,95,97,99,101,103,105,107,-1,109,-1,-1,-1,-1,-1,-1,-1,-1,-1,-1,-1,-1,-1,-1,-1,-1,-1,-1,-1,-1,-1,-1,-1,-1,-1,-1,-1,-1,-1,-1,-1,-1,-1,-1,-1,-1,-1,-1,-1,-1,-1,-1,-1,-1,-1,-1,-1,-1,-1,-1,-1,-1],"loss_changes":[3.9800166E5,7.1094266E4,7.70968E4,3.731E3,3.0266465E3,5.9598043E4,2.0207344E3,7.5384375E2,4.123095E2,7.521168E2,5.6481836E2,1.4523354E4,1.2186289E3,1.5018281E3,3.25E0,3.653125E2,8.8808203E2,1.9738826E2,0E0,1.1046802E2,2.5483716E2,1.8671387E2,5.7682617E1,4.364676E3,1.24686035E2,3.765669E2,2.6614844E2,2.3121543E3,9.1538086E1,1.631836E1,0E0,1.01953125E2,4.190796E2,2.8314453E2,6.051428E2,5.057144E1,1.6466919E2,2.210785E1,8.50223E1,2.122665E2,2.1768274E2,2.0075195E2,7.534328E1,6.454224E1,2.2162598E1,1.6006152E3,7.059767E2,1.07638794E2,0E0,1.544371E2,7.831738E1,4.8560547E1,2.5132812E1,1.0008894E3,1.258999E2,8.5898926E1,6.2441406E0,0E0,4.876465E0,0E0,0E0,0E0,0E0,0E0,0E0,0E0,0E0,0E0,0E0,0E0,0E0,0E0,0E0,0E0,0E0,0E0,0E0,0E0,0E0,0E0,0E0,0E0,0E0,0E0,0E0,0E0,0E0,0E0,0E0,0E0,0E0,0E0,0E0,0E0,0E0,0E0,0E0,0E0,0E0,0E0,0E0,0E0,0E0,0E0,0E0,0E0,0E0,0E0,0E0,0E0,0E0],"parents":[2147483647,0,0,1,1,2,2,3,3,4,4,5,5,6,6,7,7,8,8,9,9,10,10,11,11,12,12,13,13,14,14,15,15,16,16,17,17,19,19,20,20,21,21,22,22,23,23,24,24,25,25,26,26,27,27,28,28,29,29,31,31,32,32,33,33,34,34,35,35,36,36,37,37,38,38,39,39,40,40,41,41,42,42,43,43,44,44,45,45,46,46,47,47,49,49,50,50,51,51,52,52,53,53,54,54,55,55,56,56,58,58],"right_children":[2,4,6,8,10,12,14,16,18,20,22,24,26,28,30,32,34,36,-1,38,40,42,44,46,48,50,52,54,56,58,-1,60,62,64,66,68,70,72,74,76,78,80,82,84,86,88,90,92,-1,94,96,98,100,102,104,106,108,-1,110,-1,-1,-1,-1,-1,-1,-1,-1,-1,-1,-1,-1,-1,-1,-1,-1,-1,-1,-1,-1,-1,-1,-1,-1,-1,-1,-1,-1,-1,-1,-1,-1,-1,-1,-1,-1,-1,-1,-1,-1,-1,-1,-1,-1,-1,-1,-1,-1,-1,-1,-1,-1],"split_conditions":[8.75E-1,6.875E-1,1.6788712E0,2E0,7.890625E-1,6.582031E-1,1E0,1.2242131E0,2E0,5.8799744E-1,8.7890625E-1,1E0,7.34375E-1,2.4412994E0,1E1,5.957031E-1,9.8153687E-1,3.4375E-1,1.2918149E-1,1.6813707E-1,-3.38844E1,1.2473556E0,9.238281E-1,4.0625E-1,1E1,6.875E-1,8.59375E-1,5.8203125E-1,3.693718E0,6.613094E-5,1.2812702E-1,9.999504E-1,8.274498E-1,6.40625E-1,4.3418677E-5,1.3838501E0,6.015625E-1,9.98E-1,7.2265625E-1,2.1659705E-1,1.3729728E0,8.9995E-1,8.3984375E-1,1.6813707E-1,1.6225368E0,1E0,5.527344E-1,9.998121E-1,1.2832507E-1,2E0,-1.5469E1,7.890625E-1,9.472656E-1,1.6047339E-1,7.753906E-1,6.582031E-1,2.4104999E-1,-1.2083272E-1,-2.69699E1,-1.2811486E-1,-1.2054149E-1,-2.068485E-3,-1.0884011E-1,-1.265391E-1,-1.1339716E-2,1.8090993E-2,-8.4753774E-2,-1.4428408E-1,2.5041054E-3,4.614906E-2,-1.0602715E-1,1.6897292E-1,-1.3606577E-1,-5.439892E-2,-3.1577428E-3,4.217947E-2,-1.9042587E-2,6.6970445E-2,-1.2029729E-1,7.320895E-2,1.1241843E-1,-1.4136691E-1,4.2411786E-2,-1.6704945E-1,1.2590815E-1,1.467744E-1,-3.9356425E-2,6.7248784E-2,-9.537815E-2,-4.5715895E-2,-2.5084605E-3,1.03114426E-1,2.5870329E-2,3.0372918E-2,1.1511395E-1,7.2371E-2,1.0066449E-1,1.0593623E-1,1.1884584E-1,1.3011989E-1,1.3918026E-1,6.385981E-2,-3.7125804E-2,9.173902E-2,1.2947087E-1,9.8973006E-2,1.299017E-1,1.2774804E-1,1.142916E-1,1.1731567E-1,1.2704003E-1],"split_indices":[39,38,33,37,38,38,37,33,27,33,38,37,38,33,37,38,31,38,0,33,24,34,38,38,37,38,38,38,33,30,0,31,31,38,30,33,38,2,38,30,34,33,38,33,34,26,38,31,0,37,7,38,38,32,38,38,35,0,24,0,0,0,0,0,0,0,0,0,0,0,0,0,0,0,0,0,0,0,0,0,0,0,0,0,0,0,0,0,0,0,0,0,0,0,0,0,0,0,0,0,0,0,0,0,0,0,0,0,0,0,0],"split_type":[0,0,0,0,0,0,0,0,0,0,0,0,0,0,0,0,0,0,0,0,0,0,0,0,0,0,0,0,0,0,0,0,0,0,0,0,0,0,0,0,0,0,0,0,0,0,0,0,0,0,0,0,0,0,0,0,0,0,0,0,0,0,0,0,0,0,0,0,0,0,0,0,0,0,0,0,0,0,0,0,0,0,0,0,0,0,0,0,0,0,0,0,0,0,0,0,0,0,0,0,0,0,0,0,0,0,0,0,0,0,0],"sum_hessian":[4.5517656E5,2.0301545E5,2.5216111E5,1.838898E5,1.9125652E4,8.699064E4,1.6517047E5,1.826449E5,1.2448986E3,8.421778E3,1.0703874E4,5.4223117E4,3.2767521E4,1.7929215E4,1.4724127E5,1.6755658E5,1.508832E4,8.2008264E2,4.2481598E2,1.4734337E3,6.9483447E3,5.354768E3,5.3491055E3,4.9704785E4,4.518332E3,6.6939424E3,2.607358E4,7.8044136E3,1.0124801E4,3.5107266E3,1.4373053E5,1.6171664E5,5.8399375E3,8.7162295E3,6.3720903E3,1.2429821E2,6.957844E2,1.0301086E2,1.3704229E3,2.8135417E3,4.134803E3,5.267147E3,8.7621124E1,2.1731714E3,3.1759343E3,3.3804453E4,1.5900333E4,1.7379431E3,2.780389E3,2.0479523E3,4.64599E3,1.2191145E4,1.3882436E4,3.9999763E3,3.8044373E3,4.604266E3,5.5205347E3,1.9699749E0,3.5087566E3,1.4100917E5,2.0707477E4,3.94257E2,5.4456807E3,8.497165E3,2.1906506E2,6.3514E2,5.73695E3,9.306988E1,3.1228333E1,6.1637494E2,7.9409485E1,1.6203688E0,1.0139049E2,5.233258E2,8.470971E2,2.028731E3,7.8481067E2,4.0726497E3,6.2153736E1,2.4599468E3,2.8072002E3,4.503376E1,4.2587368E1,6.7295117E0,2.166442E3,3.169903E3,6.0311427E0,6.157798E2,3.318867E4,9.704578E3,6.195755E3,1.5325891E3,2.0535408E2,1.804515E3,2.4343723E2,1.4260277E3,3.2199624E3,5.2575835E3,6.933561E3,8.573793E3,5.308642E3,1.7239309E3,2.2760454E3,1.4325253E3,2.3719119E3,3.3569297E3,1.2473365E3,5.0475146E3,4.730199E2,9.204736E2,2.588283E3],"tree_param":{"num_deleted":"0","num_feature":"40","num_nodes":"111","size_leaf_vector":"1"}},{"base_weights":[6.463113E-4,-1.0029839E0,8.049715E-1,-1.1936406E0,7.252227E-1,1.6612314E-1,1.2440192E0,-1.2021672E0,5.260172E-1,4.2885816E-1,1.1937093E0,-3.4889457E-1,1.0880792E0,9.301308E-1,1.2455546E0,-1.216307E0,-9.515561E-1,-5.5207707E-2,1.253608E-1,1.7608064E-1,6.3347334E-1,1.0120888E0,1.3354571E0,-5.760361E-1,9.606867E-1,8.0960834E-1,1.2196862E0,4.5367286E-1,1.117144E0,1.1715653E0,1.2475828E-1,-1.0701632E0,-1.2307631E0,-2.9860786E-1,-1.0262369E0,-7.464141E-1,5.335979E-1,-2.949211E-1,3.0442297E-1,4.4158363E-1,8.469106E-1,-5.60197E-1,1.0276636E0,1.3402567E0,-7.8769857E-1,-7.385088E-1,-8.831221E-2,1.090601E0,2.9346254E-1,4.0737513E-1,9.0667224E-1,1.133844E0,1.2965109E0,2.024767E-2,1.2452599E-1,4.5147702E-1,1.1481545E0,-6.596284E-1,1.1748446E0,-1.23613216E-1,-8.3378814E-2,-1.2503792E-1,-1.1880362E-1,1.2288951E-2,-1.2183354E-1,-3.1355057E-2,-1.1016034E-1,-1.467644E-1,-3.4626257E-2,-7.903779E-2,7.641651E-2,-1.2570667E-1,-1.7467128E-2,7.389627E-2,2.007995E-2,-7.2977856E-2,4.8989307E-2,8.728144E-2,-1.2775831E-1,-1.5803698E-1,9.90107E-2,-4.149759E-2,1.0365047E-1,1.2632737E-1,1.4154276E-1,-1.419491E-1,2.0968257E-2,-8.133745E-2,-2.2099635E-2,-4.1183718E-2,7.309781E-3,1.2086425E-1,7.769216E-2,-3.3206955E-2,9.167305E-2,2.536786E-2,9.6509114E-2,8.781524E-2,1.1388632E-1,1.05587624E-1,1.1596306E-1,-4.223851E-2,1.2977894E-1,-1.777948E-1,2.888656E-2,1.02426484E-1,-9.611118E-2,9.731441E-2,1.24748744E-1,1.0326739E-1,-1.9384766E-1,1.1190107E-1,1.2362488E-1],"categories":[],"categories_nodes":[],"categories_segments":[],"categories_sizes":[],"default_left":[0,0,0,0,0,0,0,0,0,0,0,0,0,0,0,0,0,0,0,0,0,0,0,0,0,0,0,0,0,0,0,0,0,0,0,0,0,0,0,0,0,0,0,0,0,0,0,0,0,0,0,0,0,0,0,0,0,0,0,0,0,0,0,0,0,0,0,0,0,0,0,0,0,0,0,0,0,0,0,0,0,0,0,0,0,0,0,0,0,0,0,0,0,0,0,0,0,0,0,0,0,0,0,0,0,0,0,0,0,0,0,0,0],"id":9,"left_children":[1,3,5,7,9,11,13,15,17,19,21,23,25,27,29,31,33,35,-1,37,39,41,43,45,47,49,51,53,55,57,-1,59,61,63,65,67,69,71,73,75,77,79,81,83,85,87,89,91,93,95,97,99,101,103,-1,105,107,109,111,-1,-1,-1,-1,-1,-1,-1,-1,-1,-1,-1,-1,-1,-1,-1,-1,-1,-1,-1,-1,-1,-1,-1,-1,-1,-1,-1,-1,-1,-1,-1,-1,-1,-1,-1,-1,-1,-1,-1,-1,-1,-1,-1,-1,-1,-1,-1,-1,-1,-1,-1,-1,-1,-1],"loss_changes":[3.4582475E5,6.2798406E4,6.670291E4,2.5175312E3,2.62879E3,4.5995215E4,6.6796875E1,6.041094E2,3.5851123E2,5.99917E2,1.8754102E2,1.8487805E4,1.2713789E3,6.097809E1,1.95625E1,3.4021875E2,4.4475098E2,1.92556E2,0E0,3.1388947E2,2.6219336E2,7.943677E1,4.30166E1,4.1969453E3,7.9600684E2,4.347588E2,1.5399219E2,6.728462E1,9.696716E0,2.334668E1,0E0,5.702031E2,1.21828125E2,3.6384207E2,4.3955273E2,6.2292877E1,7.861239E1,1.2845047E2,1.8356741E2,1.9150806E2,1.6808105E2,5.2546898E1,4.1107178E1,2.1990234E1,6.5470843E0,1.5390957E3,6.912191E2,2.8376953E2,5.845647E2,1.8563019E2,5.8450195E1,2.1175781E1,2.7871094E1,6.2239063E1,0E0,2.014012E1,6.994507E0,1.7929316E1,1.1480957E1,0E0,0E0,0E0,0E0,0E0,0E0,0E0,0E0,0E0,0E0,0E0,0E0,0E0,0E0,0E0,0E0,0E0,0E0,0E0,0E0,0E0,0E0,0E0,0E0,0E0,0E0,0E0,0E0,0E0,0E0,0E0,0E0,0E0,0E0,0E0,0E0,0E0,0E0,0E0,0E0,0E0,0E0,0E0,0E0,0E0,0E0,0E0,0E0,0E0,0E0,0E0,0E0,0E0,0E0],"parents":[2147483647,0,0,1,1,2,2,3,3,4,4,5,5,6,6,7,7,8,8,9,9,10,10,11,11,12,12,13,13,14,14,15,15,16,16,17,17,19,19,20,20,21,21,22,22,23,23,24,24,25,25,26,26,27,27,28,28,29,29,31,31,32,32,33,33,34,34,35,35,36,36,37,37,38,38,39,39,40,40,41,41,42,42,43,43,44,44,45,45,46,46,47,47,48,48,49,49,50,50,51,51,52,52,53,53,55,55,56,56,57,57,58,58],"right_children":[2,4,6,8,10,12,14,16,18,20,22,24,26,28,30,32,34,36,-1,38,40,42,44,46,48,50,52,54,56,58,-1,60,62,64,66,68,70,72,74,76,78,80,82,84,86,88,90,92,94,96,98,100,102,104,-1,106,108,110,112,-1,-1,-1,-1,-1,-1,-1,-1,-1,-1,-1,-1,-1,-1,-1,-1,-1,-1,-1,-1,-1,-1,-1,-1,-1,-1,-1,-1,-1,-1,-1,-1,-1,-1,-1,-1,-1,-1,-1,-1,-1,-1,-1,-1,-1,-1,-1,-1,-1,-1,-1,-1,-1,-1],"split_conditions":[8.75E-1,6.875E-1,1E0,1E0,8.3984375E-1,6.582031E-1,-1.7171E1,5.703125E-1,2E0,7.4609375E-1,9.003906E-1,-2.32175E1,7.753906E-1,5.058594E-1,2E0,4.062019E-4,6.6145025E-5,7.942922E-3,1.253608E-1,-2.0667E1,-3.25691E1,-4.26375E1,1.6225368E0,4.609375E-1,-2.689E0,6.875E-1,8.7890625E-1,2E0,7.0830945E-5,1.3226188E-4,1.2475828E-1,3.671875E-1,9.760246E-1,6.25E-1,8.274498E-1,-1.6719E1,3.4179688E-1,-1.971E1,8.629255E-1,-1.9524E1,1.3729728E0,7.352654E-1,2.3056477E-1,9.472656E-1,9.472656E-1,-2.59863E1,-1.7232E1,5.078125E-2,-2.06561E1,-2.58458E1,-2.43085E1,-2.0352E1,1.3389951E-2,1.6537245E-4,1.2452599E-1,-2.218E1,7.4609375E-1,-1.6235E1,-2.66264E1,-1.23613216E-1,-8.3378814E-2,-1.2503792E-1,-1.1880362E-1,1.2288951E-2,-1.2183354E-1,-3.1355057E-2,-1.1016034E-1,-1.467644E-1,-3.4626257E-2,-7.903779E-2,7.641651E-2,-1.2570667E-1,-1.7467128E-2,7.389627E-2,2.007995E-2,-7.2977856E-2,4.8989307E-2,8.728144E-2,-1.2775831E-1,-1.5803698E-1,9.90107E-2,-4.149759E-2,1.0365047E-1,1.2632737E-1,1.4154276E-1,-1.419491E-1,2.0968257E-2,-8.133745E-2,-2.2099635E-2,-4.1183718E-2,7.309781E-3,1.2086425E-1,7.769216E-2,-3.3206955E-2,9.167305E-2,2.536786E-2,9.6509114E-2,8.781524E-2,1.1388632E-1,1.05587624E-1,1.1596306E-1,-4.223851E-2,1.2977894E-1,-1.777948E-1,2.888656E-2,1.02426484E-1,-9.611118E-2,9.731441E-2,1.24748744E-1,1.0326739E-1,-1.9384766E-1,1.1190107E-1,1.2362488E-1],"split_indices":[39,38,27,27,38,38,11,38,27,38,38,24,38,38,27,36,36,36,0,12,24,24,34,38,5,38,38,27,30,30,0,38,31,38,31,5,38,4,31,4,34,34,34,38,38,24,11,38,24,24,24,22,34,30,0,17,38,9,24,0,0,0,0,0,0,0,0,0,0,0,0,0,0,0,0,0,0,0,0,0,0,0,0,0,0,0,0,0,0,0,0,0,0,0,0,0,0,0,0,0,0,0,0,0,0,0,0,0,0,0,0,0,0],"split_type":[0,0,0,0,0,0,0,0,0,0,0,0,0,0,0,0,0,0,0,0,0,0,0,0,0,0,0,0,0,0,0,0,0,0,0,0,0,0,0,0,0,0,0,0,0,0,0,0,0,0,0,0,0,0,0,0,0,0,0,0,0,0,0,0,0,0,0,0,0,0,0,0,0,0,0,0,0,0,0,0,0,0,0,0,0,0,0,0,0,0,0,0,0,0,0,0,0,0,0,0,0,0,0,0,0,0,0,0,0,0,0,0,0],"sum_hessian":[4.2839925E5,1.9058662E5,2.3781262E5,1.7165036E5,1.8936252E4,9.686619E4,1.4094644E5,1.7080377E5,8.4659326E2,1.1600004E4,7.3362466E3,6.214932E4,3.4716867E4,6.8903656E2,1.4025739E5,1.6167777E5,9.126E3,4.7114795E2,3.754453E2,5.1901084E3,6.409896E3,3.2193967E3,4.11685E3,5.2963566E4,9.185755E3,1.1144032E4,2.3572836E4,1.9518498E2,4.938516E2,3.757702E3,1.364997E5,1.4559796E4,1.4711798E5,9.3716693E2,8.188833E3,2.1660497E2,2.54543E2,1.1111213E3,4.0789868E3,3.3769424E3,3.0329539E3,3.1235003E1,3.1881616E3,4.1079326E3,8.917579E0,3.972851E4,1.3235055E4,7.6881675E3,1.497587E3,2.1674224E3,8.976609E3,1.1140499E4,1.2432336E4,1.2678872E2,6.839626E1,2.26749E1,4.711767E2,6.359541E0,3.7513423E3,8.551322E3,6.008473E3,1.0080811E5,4.630987E4,6.4324414E2,2.939228E2,7.836442E2,7.4051885E3,7.634096E1,1.40264E2,3.7393265E1,2.1714973E2,1.2239087E2,9.887305E2,7.842297E2,3.294757E3,1.3319711E2,3.243745E3,2.9970007E3,3.59531E1,1.8826735E1,1.2408268E1,1.9139809E1,3.1690217E3,2.0383009E3,2.0696316E3,5.200253E0,3.7173252E0,3.4707062E4,5.0214507E3,4.4047554E3,8.830299E3,5.5839897E3,2.1041777E3,7.4766907E2,7.4991797E2,1.700304E3,4.6711847E2,7.9988926E3,9.77717E2,2.779219E3,8.36128E3,8.994518E0,1.2423342E4,1.5748104E1,1.1104061E2,1.6328707E1,6.346193E0,1.7451067E2,2.9666602E2,2.8201404E0,3.5394006E0,1.9748588E3,1.7764836E3],"tree_param":{"num_deleted":"0","num_feature":"40","num_nodes":"113","size_leaf_vector":"1"}},{"base_weights":[1.9057404E-3,-6.6921693E-1,1.1278833E0,-1.0010293E0,9.0250546E-1,6.15148E-1,1.2168989E0,-1.1704608E0,-4.8665646E-1,5.717645E-1,1.104793E0,2.4305913E-1,1.046398E0,5.5041516E-1,1.2171534E0,-1.1776726E0,5.471096E-2,-6.0443795E-1,1.0635548E0,2.3298301E-1,8.690733E-1,9.5187813E-1,1.2359741E0,-2.2127776E-1,1.0225835E0,-5.083483E-1,1.0662714E0,1.3724006E0,-1.2297188E0,7.703204E-1,1.2173365E0,-1.1886662E0,-8.730778E-1,-1.0567886E0,2.8803623E-1,-8.55783E-1,-2.4348892E-1,8.482747E-1,1.2217422E-1,-2.5336587E-1,3.4991407E-1,8.4118015E-1,1.1715773E0,7.495284E-1,1.078793E0,1.1562926E0,1.2852665E0,9.138439E-2,-6.299953E-1,7.729786E-1,1.180233E0,-1.3619284E-1,3.7668502E-1,9.256779E-1,1.1896133E0,2.6306821E-2,1.4377919E-1,-2.2081684E-1,2.4186648E-2,-5.088181E-1,1.0337266E0,1.1691269E0,1.2186599E-1,-1.2019799E-1,-1.0049514E-1,-1.10758916E-1,-5.5259336E-2,-1.2524872E-1,1.732526E-2,1.0643476E-1,6.2900023E-3,6.640086E-2,-8.892731E-2,-4.2412728E-2,5.8701276E-3,9.355112E-2,2.328368E-2,-1.2380286E-1,-1.8279612E-2,-1.5705919E-2,4.214249E-2,8.532008E-2,2.7854249E-2,4.123818E-2,1.1837383E-1,5.0905168E-2,8.763012E-2,1.0805044E-1,-7.72278E-2,1.15922175E-1,-1.7963605E-1,1.2861285E-1,-8.370955E-2,-5.0766498E-2,4.3284435E-2,-7.212996E-2,3.9857164E-2,-2.6332742E-2,8.372483E-2,1.19379796E-1,-1.31268995E-2,-4.3479167E-2,1.0620721E-1,7.973745E-2,1.2119683E-1,-6.5633155E-2,1.190876E-1,1.10609055E-1,-1.1803643E-1,-1.7034365E-1,5.1448233E-2,-1.2020303E-1,1.1577816E-1,1.17350236E-1,5.8083892E-2],"categories":[],"categories_nodes":[],"categories_segments":[],"categories_sizes":[],"default_left":[0,0,0,0,0,0,0,0,0,0,0,0,0,0,0,0,0,0,0,0,0,0,0,0,0,0,0,0,0,0,0,0,0,0,0,0,0,0,0,0,0,0,0,0,0,0,0,0,0,0,0,0,0,0,0,0,0,0,0,0,0,0,0,0,0,0,0,0,0,0,0,0,0,0,0,0,0,0,0,0,0,0,0,0,0,0,0,0,0,0,0,0,0,0,0,0,0,0,0,0,0,0,0,0,0,0,0,0,0,0,0,0,0,0,0],"id":10,"left_children":[1,3,5,7,9,11,13,15,17,19,21,23,25,27,29,31,33,35,37,39,41,43,45,47,49,51,53,55,57,59,61,63,65,67,69,71,73,75,-1,77,79,81,83,85,87,89,91,93,95,97,99,-1,101,103,105,-1,-1,-1,107,109,111,113,-1,-1,-1,-1,-1,-1,-1,-1,-1,-1,-1,-1,-1,-1,-1,-1,-1,-1,-1,-1,-1,-1,-1,-1,-1,-1,-1,-1,-1,-1,-1,-1,-1,-1,-1,-1,-1,-1,-1,-1,-1,-1,-1,-1,-1,-1,-1,-1,-1,-1,-1,-1,-1],"loss_changes":[3.0459128E5,1.3170872E5,6.8695312E3,1.817264E4,2.9447148E3,3.5731338E3,2.10625E1,1.3860156E3,9.434817E3,1.6827827E3,5.4675E2,4.3278027E3,3.1923535E2,7.597976E1,9.5625E0,5.211406E2,2.3860788E2,4.356461E3,1.23225586E2,4.4430588E2,7.4100586E1,3.2321094E2,5.6246094E1,9.576614E2,1.747207E2,9.936696E1,1.7550781E2,2.175644E0,2.03778E1,1.9135464E1,6.75E0,3.6690625E2,4.0793457E2,3.864482E1,1.3280501E2,1.4414414E3,1.0761677E3,8.2936035E1,0E0,1.05018616E2,2.2838019E2,5.4891113E1,6.4246826E0,1.4791382E2,2.5391602E1,5.0756836E1,1.7669922E1,8.688568E2,3.0531494E2,1.1548865E2,4.879004E1,0E0,3.6628296E1,1.7402026E2,1.3418945E1,0E0,0E0,0E0,1.2057126E1,1.3225128E1,1.4186272E1,8.1953125E0,0E0,0E0,0E0,0E0,0E0,0E0,0E0,0E0,0E0,0E0,0E0,0E0,0E0,0E0,0E0,0E0,0E0,0E0,0E0,0E0,0E0,0E0,0E0,0E0,0E0,0E0,0E0,0E0,0E0,0E0,0E0,0E0,0E0,0E0,0E0,0E0,0E0,0E0,0E0,0E0,0E0,0E0,0E0,0E0,0E0,0E0,0E0,0E0,0E0,0E0,0E0,0E0,0E0],"parents":[2147483647,0,0,1,1,2,2,3,3,4,4,5,5,6,6,7,7,8,8,9,9,10,10,11,11,12,12,13,13,14,14,15,15,16,16,17,17,18,18,19,19,20,20,21,21,22,22,23,23,24,24,25,25,26,26,27,27,28,28,29,29,30,30,31,31,32,32,33,33,34,34,35,35,36,36,37,37,39,39,40,40,41,41,42,42,43,43,44,44,45,45,46,46,47,47,48,48,49,49,50,50,52,52,53,53,54,54,58,58,59,59,60,60,61,61],"right_children":[2,4,6,8,10,12,14,16,18,20,22,24,26,28,30,32,34,36,38,40,42,44,46,48,50,52,54,56,58,60,62,64,66,68,70,72,74,76,-1,78,80,82,84,86,88,90,92,94,96,98,100,-1,102,104,106,-1,-1,-1,108,110,112,114,-1,-1,-1,-1,-1,-1,-1,-1,-1,-1,-1,-1,-1,-1,-1,-1,-1,-1,-1,-1,-1,-1,-1,-1,-1,-1,-1,-1,-1,-1,-1,-1,-1,-1,-1,-1,-1,-1,-1,-1,-1,-1,-1,-1,-1,-1,-1,-1,-1,-1,-1,-1,-1],"split_conditions":[1.5787868E0,6.875E-1,1E0,8.75E-1,7.890625E-1,2.2328033E0,6.25E-1,1E0,1E0,8.75E-1,8.7890625E-1,6.484375E-1,8.75E-1,3.828125E-1,1.001358E-4,6.015625E-1,3.4570312E-1,3.671875E-1,1E1,5.916748E-1,2E0,8.75E-1,9.238281E-1,1.881065E-1,7.890625E-1,7.109375E-1,3.488655E0,-2.3065E1,5.1953125E-1,5E0,1E1,1.2242131E0,8.736625E-1,1.4040375E0,4.329887E-5,1E0,5.5859375E-1,9.998627E-1,1.2217422E-1,1.6813707E-1,-3.75698E1,1.1107923E0,1.8708287E-4,7.5772476E-1,1.6225368E0,1.6225368E0,1.8862832E0,8.75E-1,-2.19684E1,-1.7824E1,1.8862832E0,-1.3619284E-1,5.744362E-1,6.875E-1,3.1E-3,2.6306821E-2,1.4377919E-1,-2.2081684E-1,8.1241524E-1,8.75E-1,3.3789062E-1,-2.91E0,1.2186599E-1,-1.2019799E-1,-1.0049514E-1,-1.10758916E-1,-5.5259336E-2,-1.2524872E-1,1.732526E-2,1.0643476E-1,6.2900023E-3,6.640086E-2,-8.892731E-2,-4.2412728E-2,5.8701276E-3,9.355112E-2,2.328368E-2,-1.2380286E-1,-1.8279612E-2,-1.5705919E-2,4.214249E-2,8.532008E-2,2.7854249E-2,4.123818E-2,1.1837383E-1,5.0905168E-2,8.763012E-2,1.0805044E-1,-7.72278E-2,1.15922175E-1,-1.7963605E-1,1.2861285E-1,-8.370955E-2,-5.0766498E-2,4.3284435E-2,-7.212996E-2,3.9857164E-2,-2.6332742E-2,8.372483E-2,1.19379796E-1,-1.31268995E-2,-4.3479167E-2,1.0620721E-1,7.973745E-2,1.2119683E-1,-6.5633155E-2,1.190876E-1,1.10609055E-1,-1.1803643E-1,-1.7034365E-1,5.1448233E-2,-1.2020303E-1,1.1577816E-1,1.17350236E-1,5.8083892E-2],"split_indices":[33,38,37,39,38,33,39,37,37,39,38,38,39,38,29,38,38,38,37,33,37,39,38,32,38,38,33,22,38,37,37,33,33,33,36,26,38,31,0,33,24,34,36,33,34,34,34,39,24,10,34,0,31,38,0,0,0,0,34,39,38,6,0,0,0,0,0,0,0,0,0,0,0,0,0,0,0,0,0,0,0,0,0,0,0,0,0,0,0,0,0,0,0,0,0,0,0,0,0,0,0,0,0,0,0,0,0,0,0,0,0,0,0,0,0],"split_type":[0,0,0,0,0,0,0,0,0,0,0,0,0,0,0,0,0,0,0,0,0,0,0,0,0,0,0,0,0,0,0,0,0,0,0,0,0,0,0,0,0,0,0,0,0,0,0,0,0,0,0,0,0,0,0,0,0,0,0,0,0,0,0,0,0,0,0,0,0,0,0,0,0,0,0,0,0,0,0,0,0,0,0,0,0,0,0,0,0,0,0,0,0,0,0,0,0,0,0,0,0,0,0,0,0,0,0,0,0,0,0,0,0,0,0],"sum_hessian":[4.030729E5,2.5254656E5,1.5052633E5,2.0852453E5,4.4022043E4,2.2268182E4,1.2825815E5,1.5685583E5,5.16687E4,1.6708088E4,2.7313957E4,1.1954889E4,1.0313292E4,4.9772167E1,1.28208375E5,1.5593794E5,9.1788116E2,4.80208E4,3.6479001E3,7.8101973E3,8.89789E3,1.2616011E4,1.4697946E4,7.492544E3,4.4623447E3,1.2985492E2,1.0183437E4,3.420629E1,1.5565876E1,5.4232002E1,1.2815415E5,1.5050305E5,5.434895E3,1.5863882E2,7.592424E2,2.8307584E4,1.9713217E4,1.5478143E3,2.1000857E3,1.5135896E3,6.2966074E3,8.150165E3,7.477253E2,4.865498E3,7.750513E3,5.6267417E3,9.071205E3,4.2455474E3,3.2469968E3,1.7296743E3,2.7326707E3,6.582776E1,6.402716E1,4.762882E3,5.4205547E3,2.1837034E0,3.202259E1,8.315825E0,7.250051E0,9.1016035E0,4.5130398E1,3.447682E3,1.2470646E5,1.4032803E5,1.017502E4,3.1369834E3,2.2979116E3,1.3684814E2,2.179067E1,1.6984787E2,5.8939453E2,6.0993036E2,2.7697652E4,1.2337752E4,7.375465E3,1.3551987E3,1.9261559E2,1.0011649E2,1.413473E3,7.7822394E2,5.5183833E3,7.9791753E3,1.7098962E2,1.233888E1,7.353864E2,1.6812781E3,3.1842197E3,7.7437695E3,6.743329E0,5.621772E3,4.969823E0,9.067917E3,3.2882628E0,1.5412056E3,2.7043418E3,2.9825403E3,2.644565E2,1.0082592E2,1.6288484E3,2.7047847E3,2.788594E1,2.94843E1,3.454286E1,3.2915369E3,1.4713451E3,3.3509374E0,5.417204E3,3.862537E0,3.387514E0,3.8926303E0,5.208973E0,1.9156947E0,4.3214703E1,3.4212412E3,2.6440807E1],"tree_param":{"num_deleted":"0","num_feature":"40","num_nodes":"115","size_leaf_vector":"1"}},{"base_weights":[1.8046945E-3,-6.3943815E-1,1.0990056E0,-9.5664865E-1,4.1401487E-2,5.869487E-1,1.1915364E0,-1.0310416E0,-7.0471394E-1,-4.2943045E-2,1.081958E0,2.3835276E-1,1.008654E0,-9.454272E-1,1.1916227E0,-1.1002941E0,-9.6252567E-1,-4.6616188E-1,-8.54635E-1,-1.15665235E-1,2.467742E-1,9.324422E-1,1.1983909E-1,-2.263281E-1,4.2821747E-1,-4.0416226E-1,1.0279212E0,6.279031E-2,-1.4783496E-1,1.1224825E0,1.19357765E-1,-1.1019009E0,-4.8768055E-1,-8.29042E-1,-1.0362599E0,-5.1577497E-1,6.8566656E-1,-8.815196E-1,-5.289479E-1,-2.3547933E-2,-2.351299E-1,4.8946443E-1,5.6037582E-2,3.1296775E-1,9.792799E-1,8.533077E-1,-3.419747E-1,5.999464E-1,2.7248805E-2,5.162641E-1,-6.1116564E-1,8.7539476E-1,1.1628474E0,7.869685E-1,1.1384538E0,-1.1344784E-1,-1.0738262E-1,4.7774587E-2,-7.4144036E-2,-8.412924E-2,3.1828947E-2,-1.03888705E-1,1.480798E-2,3.912836E-2,-5.6739844E-2,9.571141E-2,2.8102035E-2,-8.881551E-2,2.8103871E-2,-7.729434E-2,-3.666173E-2,4.3868598E-2,-4.7077048E-3,-3.9727256E-2,-1.33954985E-2,1.5977072E-2,6.426383E-2,2.9713864E-2,-2.4290066E-3,6.8482414E-2,-1.525339E-2,6.622078E-2,1.0151887E-1,1.06568255E-1,-1.3091144E-1,-2.601159E-2,-1.2034794E-1,4.0683664E-2,8.517762E-2,-3.3867173E-2,3.417764E-2,8.423063E-2,-1.299627E-1,-1.0103128E-1,-4.3716404E-4,7.5962506E-2,1.017641E-1,1.1790683E-1,1.0101404E-1,8.3864175E-2,-1.4515667E-1,1.4166142E-2,1.1424556E-1],"categories":[],"categories_nodes":[],"categories_segments":[],"categories_sizes":[],"default_left":[0,0,0,0,0,0,0,0,0,0,0,0,0,0,0,0,0,0,0,0,0,0,0,0,0,0,0,0,0,0,0,0,0,0,0,0,0,0,0,0,0,0,0,0,0,0,0,0,0,0,0,0,0,0,0,0,0,0,0,0,0,0,0,0,0,0,0,0,0,0,0,0,0,0,0,0,0,0,0,0,0,0,0,0,0,0,0,0,0,0,0,0,0,0,0,0,0,0,0,0,0,0,0],"id":11,"left_children":[1,3,5,7,9,11,13,15,17,19,21,23,25,27,29,31,33,35,37,39,41,43,-1,45,47,49,51,-1,-1,53,-1,55,57,59,61,63,65,67,69,71,73,75,77,79,81,83,85,87,89,91,93,95,97,99,101,-1,-1,-1,-1,-1,-1,-1,-1,-1,-1,-1,-1,-1,-1,-1,-1,-1,-1,-1,-1,-1,-1,-1,-1,-1,-1,-1,-1,-1,-1,-1,-1,-1,-1,-1,-1,-1,-1,-1,-1,-1,-1,-1,-1,-1,-1,-1,-1],"loss_changes":[2.659749E5,5.1528812E4,6.6062188E3,3.0497656E3,6.655548E3,3.1373223E3,2.290625E1,5.951719E2,1.3267227E3,1.4779683E3,9.78667E1,1.0310933E3,2.6332812E2,5.3953447E0,1.4609375E1,6.096875E1,6.208906E2,8.188511E2,1.9904688E2,6.1707275E2,6.515157E2,7.205127E1,0E0,4.235998E2,5.7125854E2,2.521086E1,1.9508398E2,0E0,0E0,1.6594727E1,0E0,5.5773438E1,4.0839104E1,3.1627246E2,1.2675E2,6.432344E2,6.474454E1,1.6260645E2,6.863376E1,3.44373E2,4.0043555E2,3.126936E2,1.5266525E2,3.0703382E1,2.5720703E1,1.5217061E2,2.1569876E2,2.8213086E2,2.865583E2,1.5619385E1,2.5942493E1,7.2948975E1,1.1325684E1,1.8748032E1,1.2258057E1,0E0,0E0,0E0,0E0,0E0,0E0,0E0,0E0,0E0,0E0,0E0,0E0,0E0,0E0,0E0,0E0,0E0,0E0,0E0,0E0,0E0,0E0,0E0,0E0,0E0,0E0,0E0,0E0,0E0,0E0,0E0,0E0,0E0,0E0,0E0,0E0,0E0,0E0,0E0,0E0,0E0,0E0,0E0,0E0,0E0,0E0,0E0,0E0],"parents":[2147483647,0,0,1,1,2,2,3,3,4,4,5,5,6,6,7,7,8,8,9,9,10,10,11,11,12,12,13,13,14,14,15,15,16,16,17,17,18,18,19,19,20,20,21,21,23,23,24,24,25,25,26,26,29,29,31,31,32,32,33,33,34,34,35,35,36,36,37,37,38,38,39,39,40,40,41,41,42,42,43,43,44,44,45,45,46,46,47,47,48,48,49,49,50,50,51,51,52,52,53,53,54,54],"right_children":[2,4,6,8,10,12,14,16,18,20,22,24,26,28,30,32,34,36,38,40,42,44,-1,46,48,50,52,-1,-1,54,-1,56,58,60,62,64,66,68,70,72,74,76,78,80,82,84,86,88,90,92,94,96,98,100,102,-1,-1,-1,-1,-1,-1,-1,-1,-1,-1,-1,-1,-1,-1,-1,-1,-1,-1,-1,-1,-1,-1,-1,-1,-1,-1,-1,-1,-1,-1,-1,-1,-1,-1,-1,-1,-1,-1,-1,-1,-1,-1,-1,-1,-1,-1,-1,-1],"split_conditions":[1.5787868E0,8.75E-1,1E0,9.8190004E-1,1E0,2.2328033E0,-2.058E1,6.3572514E-1,1.934907E-1,1.20295E0,1E1,8.75E-1,8.75E-1,-1.9926E1,1E1,1E0,8.476162E-2,1E0,8.2831097E-1,3.044911E-1,4.1617733E-1,1.0786875E-3,1.1983909E-1,6.246567E-5,-4.234E0,-1.2423E0,3.488655E0,6.279031E-2,-1.4783496E-1,8.75E-1,1.19357765E-1,4.4745E-1,4.329887E-5,2E0,1E0,1.2397766E-5,8.273045E-1,1E0,-9.613E0,-4.20597E1,8.017502E-1,-1.5923E1,4.708748E-1,9.4665146E-1,2E0,1.2031387E0,1.4762343E0,-2.68615E1,-2.45106E1,-2.53862E1,1.1827195E0,-2.22173E1,-3.503E0,1.3022826E0,1.4996529E-4,-1.1344784E-1,-1.0738262E-1,4.7774587E-2,-7.4144036E-2,-8.412924E-2,3.1828947E-2,-1.03888705E-1,1.480798E-2,3.912836E-2,-5.6739844E-2,9.571141E-2,2.8102035E-2,-8.881551E-2,2.8103871E-2,-7.729434E-2,-3.666173E-2,4.3868598E-2,-4.7077048E-3,-3.9727256E-2,-1.33954985E-2,1.5977072E-2,6.426383E-2,2.9713864E-2,-2.4290066E-3,6.8482414E-2,-1.525339E-2,6.622078E-2,1.0151887E-1,1.06568255E-1,-1.3091144E-1,-2.601159E-2,-1.2034794E-1,4.0683664E-2,8.517762E-2,-3.3867173E-2,3.417764E-2,8.423063E-2,-1.299627E-1,-1.0103128E-1,-4.3716404E-4,7.5962506E-2,1.017641E-1,1.1790683E-1,1.0101404E-1,8.3864175E-2,-1.4515667E-1,1.4166142E-2,1.1424556E-1],"split_indices":[33,39,37,33,37,33,8,33,36,33,37,39,39,5,37,37,29,37,29,30,30,36,0,29,6,25,33,0,0,39,0,33,36,37,37,29,34,37,15,24,33,9,29,33,37,34,34,24,24,24,36,24,6,34,29,0,0,0,0,0,0,0,0,0,0,0,0,0,0,0,0,0,0,0,0,0,0,0,0,0,0,0,0,0,0,0,0,0,0,0,0,0,0,0,0,0,0,0,0,0,0,0,0],"split_type":[0,0,0,0,0,0,0,0,0,0,0,0,0,0,0,0,0,0,0,0,0,0,0,0,0,0,0,0,0,0,0,0,0,0,0,0,0,0,0,0,0,0,0,0,0,0,0,0,0,0,0,0,0,0,0,0,0,0,0,0,0,0,0,0,0,0,0,0,0,0,0,0,0,0,0,0,0,0,0,0,0,0,0,0,0,0,0,0,0,0,0,0,0,0,0,0,0,0,0,0,0,0,0],"sum_hessian":[3.7803297E5,2.3859188E5,1.3944108E5,1.627599E5,7.5831984E4,2.1342271E4,1.18098805E5,1.25653125E5,3.7106777E4,7.014702E4,5.6849575E3,1.1684791E4,9.65748E3,4.3277063E0,1.1809448E5,6.248315E4,6.3169973E4,1.4321981E4,2.2784797E4,5.607275E4,1.4074272E4,2.492827E3,3.1921309E3,3.3893635E3,8.295428E3,1.2966266E2,9.527818E3,1.0498981E0,3.277808E0,3.2630378E3,1.14831445E5,6.2318895E4,1.6425359E2,2.24821E4,4.0687875E4,1.373109E4,5.908912E2,2.1045814E4,1.7389827E3,3.1660803E4,2.4411947E4,6.192926E3,7.881346E3,1.7577045E2,2.3170564E3,3.2731238E2,3.0620513E3,5.8076157E3,2.4878118E3,2.3532598E1,1.06130066E2,4.475737E3,5.052081E3,1.5055457E2,3.1124832E3,2.8828041E4,3.3490855E4,3.4003807E1,1.3024977E2,2.2244852E4,2.3724709E2,4.059794E4,8.993285E1,7.39043E2,1.2992047E4,3.528348E2,2.3805634E2,2.092661E4,1.1920531E2,6.932351E2,1.0457476E3,1.5327135E3,3.012809E4,9.378715E3,1.5033233E4,1.9651501E3,4.2277754E3,1.9689381E3,5.912408E3,9.745188E1,7.831857E1,2.376926E2,2.0793638E3,2.985031E2,2.880927E1,2.7975356E3,2.6451553E2,3.288513E3,2.519103E3,1.1499205E3,1.3378912E3,2.0405033E1,3.1275651E0,6.3617607E1,4.2512455E1,2.4710046E3,2.004732E3,4.5608916E3,4.9118982E2,1.477689E2,2.785664E0,1.25913E1,3.0998918E3],"tree_param":{"num_deleted":"0","num_feature":"40","num_nodes":"103","size_leaf_vector":"1"}},{"base_weights":[1.7730107E-3,-5.946874E-1,1.0848627E0,-9.356516E-1,8.561379E-1,5.9701204E-1,1.1698682E0,-1.1149025E0,-4.494802E-1,6.022635E-1,1.1170489E0,2.897549E-1,1.0232449E0,1.0994433E0,1.1717854E-1,-1.1208884E0,3.6188224E-1,-5.554351E-1,1.003258E0,3.520944E-1,8.173076E-1,9.969175E-1,1.2242209E0,-9.436087E-2,1.0236025E0,8.62979E-1,1.1361064E0,6.762579E-1,1.1169857E0,-1.1479701E0,-9.4084066E-1,-1.0316602E0,6.345474E-1,-8.7125725E-1,-3.1985995E-1,7.7418345E-1,1.17356375E-1,1.4284515E-1,5.7347196E-1,6.7928046E-1,9.0597063E-1,8.71011E-1,1.0730819E0,1.1920983E0,1.3009424E0,-6.840936E-1,1.1109809E-1,1.0394063E0,-1.2950963E0,-8.178988E-1,8.8288707E-1,-1.8271233E-1,1.1378404E0,4.711561E-2,9.918745E-1,-2.082222E-2,1.1202955E0,-1.1560392E-1,-8.89835E-2,4.6523105E-2,-9.76756E-2,-1.4578438E-1,1.4133926E-2,8.132008E-2,-7.6033645E-3,5.7012964E-2,-9.1439486E-2,-4.6116877E-2,1.2171683E-3,2.1664951E-2,8.673812E-2,-3.2117017E-2,2.6312862E-2,-6.109928E-2,6.058789E-2,1.2279585E-2,7.199408E-2,8.855124E-2,1.1619566E-1,5.36725E-2,9.61041E-2,1.0755491E-1,-1.921091E-1,1.19309604E-1,-6.9252275E-2,1.3723773E-1,1.2715559E-1,7.283277E-2,-8.667358E-2,4.740341E-2,-2.8344039E-2,8.552083E-2,1.1310426E-1,-8.8146344E-2,-3.4160376E-1,-1.4104453E-1,2.2683045E-2,7.783392E-2,1.180375E-1,1.1571465E-1,9.57267E-2,7.903126E-2,-9.1209985E-2,-1.1663585E-1,1.0506494E-1,-1.5661381E-1,7.170332E-2,1.1228766E-1,5.8983136E-3],"categories":[],"categories_nodes":[],"categories_segments":[],"categories_sizes":[],"default_left":[0,0,0,0,0,0,0,0,0,0,0,0,0,0,0,0,0,0,0,0,0,0,0,0,0,0,0,0,0,0,0,0,0,0,0,0,0,0,0,0,0,0,0,0,0,0,0,0,0,0,0,0,0,0,0,0,0,0,0,0,0,0,0,0,0,0,0,0,0,0,0,0,0,0,0,0,0,0,0,0,0,0,0,0,0,0,0,0,0,0,0,0,0,0,0,0,0,0,0,0,0,0,0,0,0,0,0,0,0],"id":12,"left_children":[1,3,5,7,9,11,13,15,17,19,21,23,25,27,-1,29,31,33,35,37,39,41,43,45,47,49,51,53,55,57,59,61,63,65,67,69,-1,71,73,75,77,79,81,83,85,87,89,91,93,95,97,-1,99,101,103,105,107,-1,-1,-1,-1,-1,-1,-1,-1,-1,-1,-1,-1,-1,-1,-1,-1,-1,-1,-1,-1,-1,-1,-1,-1,-1,-1,-1,-1,-1,-1,-1,-1,-1,-1,-1,-1,-1,-1,-1,-1,-1,-1,-1,-1,-1,-1,-1,-1,-1,-1,-1,-1],"loss_changes":[2.3153788E5,1.1433377E5,5.2776562E3,1.63085E4,2.9126328E3,2.4734907E3,1.334375E1,1.2090625E3,7.760592E3,1.1990571E3,2.7802344E2,3.0945874E3,1.4213477E2,2.0688965E1,0E0,6.629531E2,2.1067258E2,3.495629E3,1.3280249E2,4.7737048E2,1.4608936E2,9.718262E1,2.66875E1,8.733188E2,1.3956592E2,1.10268555E2,2.5918457E1,2.3287292E1,1.0463379E1,2.4551562E2,8.998877E2,4.5613434E1,5.882483E1,1.2486992E3,1.2628213E3,7.590643E1,0E0,2.958942E2,1.9260242E2,1.06091064E2,3.7181152E1,1.1570874E2,4.9131836E1,1.603711E1,5.3310547E0,4.8103467E2,7.65603E2,6.2278564E1,1.9780872E1,2.4362576E1,9.972046E1,0E0,1.5059082E1,2.945522E1,1.1145653E1,1.1410637E1,7.5058594E0,0E0,0E0,0E0,0E0,0E0,0E0,0E0,0E0,0E0,0E0,0E0,0E0,0E0,0E0,0E0,0E0,0E0,0E0,0E0,0E0,0E0,0E0,0E0,0E0,0E0,0E0,0E0,0E0,0E0,0E0,0E0,0E0,0E0,0E0,0E0,0E0,0E0,0E0,0E0,0E0,0E0,0E0,0E0,0E0,0E0,0E0,0E0,0E0,0E0,0E0,0E0,0E0],"parents":[2147483647,0,0,1,1,2,2,3,3,4,4,5,5,6,6,7,7,8,8,9,9,10,10,11,11,12,12,13,13,15,15,16,16,17,17,18,18,19,19,20,20,21,21,22,22,23,23,24,24,25,25,26,26,27,27,28,28,29,29,30,30,31,31,32,32,33,33,34,34,35,35,37,37,38,38,39,39,40,40,41,41,42,42,43,43,44,44,45,45,46,46,47,47,48,48,49,49,50,50,52,52,53,53,54,54,55,55,56,56],"right_children":[2,4,6,8,10,12,14,16,18,20,22,24,26,28,-1,30,32,34,36,38,40,42,44,46,48,50,52,54,56,58,60,62,64,66,68,70,-1,72,74,76,78,80,82,84,86,88,90,92,94,96,98,-1,100,102,104,106,108,-1,-1,-1,-1,-1,-1,-1,-1,-1,-1,-1,-1,-1,-1,-1,-1,-1,-1,-1,-1,-1,-1,-1,-1,-1,-1,-1,-1,-1,-1,-1,-1,-1,-1,-1,-1,-1,-1,-1,-1,-1,-1,-1,-1,-1,-1,-1,-1,-1,-1,-1,-1],"split_conditions":[1.6238976E0,6.777344E-1,1E0,8.75E-1,8.222656E-1,2.4412994E0,1E1,4E0,1E0,8.75E-1,9.003906E-1,6.875E-1,3.488655E0,8.75E-1,1.1717854E-1,1.106781E0,3.5546875E-1,2.65625E-1,1E1,7.4609375E-1,7.34375E-1,8.75E-1,9.707031E-1,8.75E-1,6.6541E0,8.75E-1,3.1E-3,5E0,1.4996529E-4,6.015625E-1,1.2397766E-5,9.024658E-1,7.5E-1,1E0,5.390625E-1,1.6498566E-3,1.17356375E-1,6.064377E-1,-1.9182E1,4.749298E-4,4E0,6.430001E-1,1.4762343E0,5.6198E0,8.75E-1,6.246567E-5,1.881065E-1,7.890625E-1,8.75E-1,1.102875E-1,6.875E-1,-1.8271233E-1,-3.503E0,0E0,-3.71107E1,-1.4671E1,-3.382E0,-1.1560392E-1,-8.89835E-2,4.6523105E-2,-9.76756E-2,-1.4578438E-1,1.4133926E-2,8.132008E-2,-7.6033645E-3,5.7012964E-2,-9.1439486E-2,-4.6116877E-2,1.2171683E-3,2.1664951E-2,8.673812E-2,-3.2117017E-2,2.6312862E-2,-6.109928E-2,6.058789E-2,1.2279585E-2,7.199408E-2,8.855124E-2,1.1619566E-1,5.36725E-2,9.61041E-2,1.0755491E-1,-1.921091E-1,1.19309604E-1,-6.9252275E-2,1.3723773E-1,1.2715559E-1,7.283277E-2,-8.667358E-2,4.740341E-2,-2.8344039E-2,8.552083E-2,1.1310426E-1,-8.8146344E-2,-3.4160376E-1,-1.4104453E-1,2.2683045E-2,7.783392E-2,1.180375E-1,1.1571465E-1,9.57267E-2,7.903126E-2,-9.1209985E-2,-1.1663585E-1,1.0506494E-1,-1.5661381E-1,7.170332E-2,1.1228766E-1,5.8983136E-3],"split_indices":[33,38,37,39,38,33,37,37,37,39,38,38,33,39,0,33,38,38,37,38,38,39,38,39,23,39,0,37,29,38,29,34,39,26,38,29,0,33,4,29,37,33,34,23,39,29,32,38,39,35,38,0,6,25,24,4,8,0,0,0,0,0,0,0,0,0,0,0,0,0,0,0,0,0,0,0,0,0,0,0,0,0,0,0,0,0,0,0,0,0,0,0,0,0,0,0,0,0,0,0,0,0,0,0,0,0,0,0,0],"split_type":[0,0,0,0,0,0,0,0,0,0,0,0,0,0,0,0,0,0,0,0,0,0,0,0,0,0,0,0,0,0,0,0,0,0,0,0,0,0,0,0,0,0,0,0,0,0,0,0,0,0,0,0,0,0,0,0,0,0,0,0,0,0,0,0,0,0,0,0,0,0,0,0,0,0,0,0,0,0,0,0,0,0,0,0,0,0,0,0,0,0,0,0,0,0,0,0,0,0,0,0,0,0,0,0,0,0,0,0,0],"sum_hessian":[3.5840466E5,2.3112431E5,1.2728033E5,1.8714336E5,4.3980953E4,1.8888191E4,1.0839214E5,1.3672989E5,5.041347E4,2.2292744E4,2.1688209E4,1.0976949E4,7.9112417E3,2.8876548E3,1.05504484E5,1.3617817E5,5.517218E2,4.69871E4,3.4263694E3,1.0306005E4,1.1986738E4,1.02307E4,1.145751E4,7.206003E3,3.770946E3,3.2726511E3,4.6385903E3,1.1651164E2,2.771143E3,1.1836847E5,1.7809701E4,8.9830536E1,4.6189127E2,2.0073291E4,2.6913809E4,1.4634548E3,1.9629144E3,5.2989795E3,5.007026E3,4.69164E3,7.2950986E3,3.8608337E3,6.369866E3,8.0877646E3,3.369745E3,1.861261E3,5.3447417E3,3.745966E3,2.4979954E1,3.783793E1,3.2348132E3,2.0971332E0,4.636493E3,3.9307114E1,7.720453E1,8.022529E0,2.7631206E3,1.1477719E5,3.5912825E3,4.4328568E2,1.7366416E4,6.57125E1,2.4118032E1,3.689787E2,9.291256E1,5.829386E2,1.9490354E4,1.8878814E4,8.0349937E3,2.1007202E2,1.2533828E3,1.0905016E3,4.208478E3,1.328683E2,4.8741577E3,3.1973343E2,4.3719067E3,6.7593535E3,5.3574475E2,8.20656E2,3.040178E3,6.3652617E3,4.604414E0,8.0838516E3,3.9128048E0,9.6886554E2,2.4008794E3,2.1278102E2,1.64848E3,2.7837595E3,2.5609824E3,1.2478995E3,2.4980667E3,2.20879E1,2.8920534E0,2.3920635E1,1.3917294E1,2.3962883E3,8.3852496E2,4.1837734E3,4.527198E2,2.2246601E1,1.706051E1,1.547175E0,7.565736E1,2.2298737E0,5.792655E0,2.7563591E3,6.761554E0],"tree_param":{"num_deleted":"0","num_feature":"40","num_nodes":"109","size_leaf_vector":"1"}},{"base_weights":[3.5597626E-3,-5.195289E-1,1.1345652E0,-8.412157E-1,8.334089E-1,5.220078E-1,1.1448377E0,-1.0887933E0,-2.944221E-1,5.973965E-1,1.0689045E0,2.1311083E-1,1.1941532E-1,9.8301804E-1,1.1528291E-1,-1.131E0,-9.496599E-1,-4.6455163E-1,7.121324E-1,3.5870385E-1,8.030305E-1,9.509834E-1,1.1780623E0,-2.1426706E-2,1.1355516E0,7.246168E-1,1.0545669E0,-1.1590223E0,-1.0807738E0,-5.57134E-1,-1.0260464E0,-7.008914E-1,-1.4690839E-1,1.0078357E0,2.4436472E-1,2.6303795E-1,8.1751984E-1,7.212471E-1,8.977627E-1,7.993817E-1,1.0373696E0,1.1224349E0,1.2300212E0,-7.910044E-1,1.1733348E-1,-1.8037066E-1,1.1910502E0,5.017512E-1,1.0751176E0,1.081551E0,8.729343E-1,-1.16030864E-1,1.2856223E-2,-1.0978981E-1,-6.619544E-2,-1.0708459E-1,-3.859594E-2,-1.0785406E-1,-5.9391517E-2,5.633072E-2,-7.2943695E-2,-2.9089222E-2,1.3792801E-2,1.0877577E-1,4.67759E-2,7.423327E-2,8.472257E-4,3.5388898E-2,-2.9344916E-2,1.5752421E-1,7.361771E-2,5.486232E-2,7.6799825E-2,7.8527756E-2,9.2923485E-2,-2.1443384E-2,8.3192565E-2,9.829595E-2,1.0844733E-1,-2.2265783E-1,1.1238015E-1,1.1898159E-1,1.2618856E-1,-1.4122058E-1,-1.4222078E-2,2.83238E-2,-8.8188745E-2,1.2128951E-1,-1.2234057E-2,-2.814024E-1,5.1368076E-2,-8.613133E-2,1.09176554E-1,9.86897E-2,1.1292771E-1,7.691519E-2,1.1613784E-1],"categories":[],"categories_nodes":[],"categories_segments":[],"categories_sizes":[],"default_left":[0,0,0,0,0,0,0,0,0,0,0,0,0,0,0,0,0,0,0,0,0,0,0,0,0,0,0,0,0,0,0,0,0,0,0,0,0,0,0,0,0,0,0,0,0,0,0,0,0,0,0,0,0,0,0,0,0,0,0,0,0,0,0,0,0,0,0,0,0,0,0,0,0,0,0,0,0,0,0,0,0,0,0,0,0,0,0,0,0,0,0,0,0,0,0,0,0],"id":13,"left_children":[1,3,5,7,9,11,13,15,17,19,21,23,-1,25,-1,27,29,31,33,35,37,39,41,43,45,47,49,51,53,55,57,59,61,63,65,67,69,71,73,75,77,79,81,83,85,-1,87,89,91,93,95,-1,-1,-1,-1,-1,-1,-1,-1,-1,-1,-1,-1,-1,-1,-1,-1,-1,-1,-1,-1,-1,-1,-1,-1,-1,-1,-1,-1,-1,-1,-1,-1,-1,-1,-1,-1,-1,-1,-1,-1,-1,-1,-1,-1,-1,-1],"loss_changes":[1.988401E5,1.0001905E5,6.682344E2,2.513386E4,2.4529785E3,3.6409528E2,1.3401562E2,7.4940625E2,9.909678E3,1.0820469E3,2.8329883E2,2.6040414E2,0E0,9.031152E1,0E0,1.3675E2,8.914863E2,3.715996E3,1.1570776E3,4.478004E2,9.112207E1,1.3834082E2,3.1770508E1,1.0266535E2,4.1949554E1,8.315344E1,1.7953613E1,1.04359375E2,2.5121094E2,4.2595752E2,5.642832E2,1.0246543E3,8.661766E2,2.2074951E2,3.8081784E2,4.2718384E2,1.0735254E2,5.092285E1,1.8684082E1,1.2758984E2,1.6274902E1,2.7907715E1,6.0839844E0,5.8988792E1,1.353024E2,0E0,7.036316E0,2.7427002E1,1.4337585E1,1.403125E1,1.4191498E1,0E0,0E0,0E0,0E0,0E0,0E0,0E0,0E0,0E0,0E0,0E0,0E0,0E0,0E0,0E0,0E0,0E0,0E0,0E0,0E0,0E0,0E0,0E0,0E0,0E0,0E0,0E0,0E0,0E0,0E0,0E0,0E0,0E0,0E0,0E0,0E0,0E0,0E0,0E0,0E0,0E0,0E0,0E0,0E0,0E0,0E0],"parents":[2147483647,0,0,1,1,2,2,3,3,4,4,5,5,6,6,7,7,8,8,9,9,10,10,11,11,13,13,15,15,16,16,17,17,18,18,19,19,20,20,21,21,22,22,23,23,24,24,25,25,26,26,27,27,28,28,29,29,30,30,31,31,32,32,33,33,34,34,35,35,36,36,37,37,38,38,39,39,40,40,41,41,42,42,43,43,44,44,46,46,47,47,48,48,49,49,50,50],"right_children":[2,4,6,8,10,12,14,16,18,20,22,24,-1,26,-1,28,30,32,34,36,38,40,42,44,46,48,50,52,54,56,58,60,62,64,66,68,70,72,74,76,78,80,82,84,86,-1,88,90,92,94,96,-1,-1,-1,-1,-1,-1,-1,-1,-1,-1,-1,-1,-1,-1,-1,-1,-1,-1,-1,-1,-1,-1,-1,-1,-1,-1,-1,-1,-1,-1,-1,-1,-1,-1,-1,-1,-1,-1,-1,-1,-1,-1,-1,-1,-1,-1],"split_conditions":[1E0,6.875E-1,8.75E-1,8.75E-1,8.222656E-1,2E0,1E1,4.0039062E-1,-2.38934E1,8.75E-1,9.003906E-1,7.2265625E-1,1.1941532E-1,-3.19681E1,1.1528291E-1,2.4414062E-1,3.3819434E-4,3.671875E-1,5.078125E-2,3.5892487E-1,7.597656E-1,8.75E-1,9.472656E-1,3.4179688E-1,5E-1,7.109375E-1,1.636875E-1,-2.17085E1,1.088703E0,-2.4345E1,6.25E-1,1E0,5.761719E-1,-3.77E0,-1.1625007E-2,3.3695996E-1,3.8787258E-1,-1.7039E1,-1.2976E1,-4.06981E1,6.359376E-1,1.3389951E-2,9.707031E-1,7.8590167E-1,6.015625E-1,-1.8037066E-1,1.0184417E0,9.995E-1,2.4795532E-5,-2.79478E1,7.753906E-1,-1.16030864E-1,1.2856223E-2,-1.0978981E-1,-6.619544E-2,-1.0708459E-1,-3.859594E-2,-1.0785406E-1,-5.9391517E-2,5.633072E-2,-7.2943695E-2,-2.9089222E-2,1.3792801E-2,1.0877577E-1,4.67759E-2,7.423327E-2,8.472257E-4,3.5388898E-2,-2.9344916E-2,1.5752421E-1,7.361771E-2,5.486232E-2,7.6799825E-2,7.8527756E-2,9.2923485E-2,-2.1443384E-2,8.3192565E-2,9.829595E-2,1.0844733E-1,-2.2265783E-1,1.1238015E-1,1.1898159E-1,1.2618856E-1,-1.4122058E-1,-1.4222078E-2,2.83238E-2,-8.8188745E-2,1.2128951E-1,-1.2234057E-2,-2.814024E-1,5.1368076E-2,-8.613133E-2,1.09176554E-1,9.86897E-2,1.1292771E-1,7.691519E-2,1.1613784E-1],"split_indices":[37,38,39,39,38,27,37,38,24,39,38,38,0,24,0,38,36,38,38,29,38,39,38,38,39,38,32,24,34,19,38,26,38,7,35,30,30,7,4,24,34,34,38,34,38,0,34,2,29,24,38,0,0,0,0,0,0,0,0,0,0,0,0,0,0,0,0,0,0,0,0,0,0,0,0,0,0,0,0,0,0,0,0,0,0,0,0,0,0,0,0,0,0,0,0,0,0],"split_type":[0,0,0,0,0,0,0,0,0,0,0,0,0,0,0,0,0,0,0,0,0,0,0,0,0,0,0,0,0,0,0,0,0,0,0,0,0,0,0,0,0,0,0,0,0,0,0,0,0,0,0,0,0,0,0,0,0,0,0,0,0,0,0,0,0,0,0,0,0,0,0,0,0,0,0,0,0,0,0,0,0,0,0,0,0,0,0,0,0,0,0,0,0,0,0,0,0],"sum_hessian":[3.360945E5,2.2980877E5,1.0628574E5,1.8566398E5,4.4144785E4,1.7538564E3,1.0453188E5,1.2779837E5,5.7865613E4,2.2049969E4,2.2094816E4,1.2025288E3,5.513275E2,4.9251133E3,9.960677E4,9.804794E4,2.975043E4,4.949964E4,8.365974E3,1.0205979E4,1.1843991E4,1.0625742E4,1.1469074E4,9.5953625E2,2.4299258E2,1.0704115E3,3.8547017E3,6.292097E4,3.512697E4,4.8477397E3,2.490269E4,2.8381453E4,2.1118188E4,5.1250034E3,3.24097E3,8.446421E3,1.7595566E3,6.3610425E3,5.482948E3,3.8607136E3,6.7650283E3,5.5499106E3,5.919164E3,1.4586333E2,8.13673E2,3.9193633E0,2.3907323E2,6.558324E2,4.1457904E2,3.3517908E3,5.0291098E2,6.2858273E4,6.2697433E1,3.3745598E4,1.3813723E3,1.2102883E3,3.6374517E3,2.220392E4,2.6987695E3,6.262869E2,2.7755166E4,1.4027376E4,7.090812E3,4.463473E3,6.6153046E2,1.0410889E3,2.199881E3,7.2613164E3,1.185105E3,1.687989E2,1.5907578E3,1.3583187E3,5.0027236E3,1.2043612E3,4.2785874E3,1.19902275E2,3.7408113E3,3.1492021E3,3.6158262E3,1.599606E0,5.548311E3,2.634011E3,3.2851528E3,7.391451E1,7.194882E1,6.9842694E2,1.1524599E2,2.3523717E2,3.8360462E0,1.509058E0,6.5432336E2,3.1013682E0,4.114777E2,1.1307938E3,2.220997E3,3.7253806E2,1.3037291E2],"tree_param":{"num_deleted":"0","num_feature":"40","num_nodes":"97","size_leaf_vector":"1"}},{"base_weights":[5.795352E-4,-5.5651337E-1,1.0269983E0,-8.817619E-1,7.253537E-1,5.084811E-1,1.133779E0,-1.0686599E0,-4.148722E-1,4.421147E-1,9.867078E-1,2.3893254E-1,9.6770024E-1,3.2462037E-1,1.1340967E0,-1.0770643E0,6.277347E-2,-4.9592972E-1,9.6398324E-1,2.0632978E-1,6.6246724E-1,8.570648E-1,1.1366292E0,-1.5847428E-1,8.374174E-1,8.151858E-1,1.1137549E0,1.2202541E0,-1.0271466E0,1.0631727E0,1.13615386E-1,-1.1003273E0,-8.3259755E-1,-1.8497166E-1,7.192226E-1,-8.015305E-1,-2.9357025E-1,7.2664815E-1,1.1376166E-1,-5.1520413E-1,2.755969E-1,2.590631E-1,7.161251E-1,7.0417935E-1,9.6172047E-1,1.1020432E0,1.2221608E0,1.6373475E-1,-4.77836E-1,5.6213087E-1,1.0376533E0,-9.1476023E-1,8.329387E-1,1.140213E0,1.0122929E0,1.0951927E-2,1.3199772E-1,-2.0973125E-1,9.469947E-2,1.0854429E0,6.833713E-1,-1.1231436E-1,-9.731775E-2,-5.1026057E-2,-1.092275E-1,-1.033536E-1,1.0645813E-2,9.6265584E-2,-3.2843474E-2,4.2200655E-2,-8.445114E-2,-4.421224E-2,-3.8166295E-3,8.184756E-2,1.8434005E-2,-7.84629E-2,3.6341872E-2,-3.0145127E-2,3.3803448E-2,8.8952936E-2,1.494586E-2,6.906876E-2,1.0941917E-1,7.186539E-2,-1.1339978E-1,9.639865E-2,-1.3103713E-1,-3.3863354E-2,1.1034956E-1,1.2238494E-1,-6.5569274E-2,-3.2451082E-2,4.13203E-2,-5.9181627E-2,3.4288894E-2,-6.1425712E-2,6.31423E-2,1.0474413E-1,-8.610978E-2,-1.3777211E-1,-3.1800084E-3,7.383711E-2,1.13002874E-1,1.1405472E-1,1.2261449E-2,8.923556E-2,1.1496776E-1,1.0390581E-1,-1.1181813E-1,1.09130524E-1,5.3093947E-2,-3.0632302E-1,8.717969E-2],"categories":[],"categories_nodes":[],"categories_segments":[],"categories_sizes":[],"default_left":[0,0,0,0,0,0,0,0,0,0,0,0,0,0,0,0,0,0,0,0,0,0,0,0,0,0,0,0,0,0,0,0,0,0,0,0,0,0,0,0,0,0,0,0,0,0,0,0,0,0,0,0,0,0,0,0,0,0,0,0,0,0,0,0,0,0,0,0,0,0,0,0,0,0,0,0,0,0,0,0,0,0,0,0,0,0,0,0,0,0,0,0,0,0,0,0,0,0,0,0,0,0,0,0,0,0,0,0,0,0,0,0,0],"id":14,"left_children":[1,3,5,7,9,11,13,15,17,19,21,23,25,27,29,31,33,35,37,39,41,43,45,47,49,51,53,55,57,59,-1,61,63,65,67,69,71,73,-1,75,77,79,81,83,85,87,89,91,93,95,97,99,101,103,105,-1,-1,-1,107,109,111,-1,-1,-1,-1,-1,-1,-1,-1,-1,-1,-1,-1,-1,-1,-1,-1,-1,-1,-1,-1,-1,-1,-1,-1,-1,-1,-1,-1,-1,-1,-1,-1,-1,-1,-1,-1,-1,-1,-1,-1,-1,-1,-1,-1,-1,-1,-1,-1,-1,-1,-1,-1],"loss_changes":[1.7993055E5,8.503889E4,6.1287734E3,1.4195742E4,3.0552773E3,2.3400244E3,2.3242188E1,1.1048281E3,5.198619E3,1.0292083E3,4.162871E2,2.833965E3,1.54854E2,4.65785E1,1.21875E1,6.549219E2,1.396028E2,2.7162812E3,1.0560083E2,4.785507E2,2.2148145E2,1.8359473E2,2.809375E1,7.3696094E2,2.6150684E2,1.05928955E2,8.427246E0,2.4002762E0,1.8762344E1,2.1266113E1,0E0,3.043828E2,8.3852686E2,1.5427525E2,6.029451E1,9.206094E2,1.0027307E3,